tree
version=v4
num_class=1
num_tree_per_iteration=1
label_index=0
max_feature_idx=21
objective=regression
feature_names=age bmi children age_smoker bmi_smoker bmi_age sex_female sex_male smoker_no smoker_yes region_northeast region_northwest region_southeast region_southwest age_band_18-25 age_band_26-35 age_band_36-50 age_band_50+ bmi_cat_normal bmi_cat_obese bmi_cat_overweight bmi_cat_underweight
feature_infos=[-1.5047367938991361:1.7559811376608119] [-2.4221774348974039:3.6118304967082335] [-0.90369074580401232:3.3000448130355471] [-0.47075164770642874:3.3344325477214647] [-0.49568375112663426:3.253385127481073] [-1.7704861497768341:3.0842411047349061] [0:1] [0:1] [0:1] [0:1] [0:1] [0:1] [0:1] [0:1] [0:1] [0:1] [0:1] [0:1] [0:1] [0:1] [0:1] none
tree_sizes=2482 2425 2444 2516 2437 2507 2492 2500 2527 2425 2516 2515 2605 2511 2607 2441 2536 2434 2521 2515 2426 2512 2432 2508 2674 2603 2609 2609 2769 2507 2596 2424 2336 2603 2331 2600 2684 2585 2529 2502 2603 2608 2596 2425 2598 2604 2416 2506 2594 2579 2680 2759 2506 2507 2516 2680 2586 2587 2580 2596 2515 2593 2588 2517 2691 2747 2506 2504 2583 2598 2668 2673 2687 2596 2670 2675 2496 2513 2593 2434 2419 2441 2501 2592 2774 2521 2582 2338 2584 2576 2496 2675 2434 2589 2683 2515 2601 2597 2514 2586 2666 2586 2750 2581 2515 2400 2413 2501 2335 2593 2497 2587 2580 2602 2681 2593 2505 2507 2512 2750 2687 2668 2639 2763 2593 2498 2585 2413 2587 2419 2755 2671 2510 2687 2679 2667 2348 2593 2355 2508 2572 2740 2410 2496 2418 2423 2753 2663 2602 2588 2664 2436 2611 2517 2575 2508 2582 2342 2510 2366 2668 2590 2585 2524 2663 2437 2588 2504 2610 2574 2417 2505 2585 2592 2695 2593 2679 2419 2668 2517 2596 2751 2758 2754 2603 2603 2588 2600 2416 2679 2518 2490 2582 2666 2583 2492 2338 2410 2497 2415 2419 2567 2589 2665 2671 2442 2501 2337 2599 2423 2669 2503 2506 2760 2426 2330 2676 2573 2490 2574 2594 2431 2429 2680 2591 2681 2516 2512 2438 2586 2517 2588 2580 2501 2587 2646 2591 2584 2749 2676 2677 2655 2680 2669 2730 2499 2339 2496 2414 2581 2600 2606 2510 2761 2607 2656 2595 2686 2499 2256 2503 2601 2749 2422 2505 2483 2592 2747 2661 2583 2506 2410 2509 2439 2588 2581 2664 2645 2580 2736 2596 2514 2506 2498 2599 2354 2524 2357 2516 2512 2436 2336 2422 2413 2427 2586 2594 2576 2589 2591 2664 2509 2592 2590 2682 2591 2580 2499 2592 2596 2501 2512 2516 2497 2514 2651 2666 2746 2666 2583 2591 2502 2499 2505 2418 2414 2425 2643 2568 2668 2519 2608 2424 2413 2510 2345 2517 2334 2511 2502 2670 2580 2572 2738 2598 2515 2758 2497 2427 2504 2667 2597 2576 2664 2676 2504 2578 2590 2685 2672 2508 2507 2427 2601 2342 2423 2502 2500 2507 2595 2516 2685 2582 2598 2409 2507 2519 2759 2676 2581 2653 2423 2588 2578 2596 2408 2581 2586 2488 2492 2767 2662 2676 2679 2772 2452 2586 2681 2510 2763 2511 2592 2687 2526 2604 2578 2584 2479 2577 2563 2671 2490 2593 2675 2679 2510 2414 2668 2429 2417 2678 2552 2497 2577 2561 2512 2417 2500 2497 2507 2593 2589 2502 2583 2421 2588 2579 2690 2578 2760 2665 2656 2588 2670 2678 2606 2582 2493 2592 2593 2501 2578 2494 2412 2432 2683 2675 2601 2757 2762 2752 2496 2750 2494 2587 2513 2429 2607 2520 2492 2587 2602 2597 2681 2515 2658 2648 2506 2496 2581 2679 2577 2578 2415 2736 2496 2517 2630 2586 2583 2506 2419 2669 2672 2667 2579 2586 2503 2746 2667

Tree=0
num_leaves=28
num_cat=0
split_feature=4 4 0 5 5 0 2 5 0 0 13 5 0 6 2 12 0 0 5 19 0 2 12 5 0 19 5
split_gain=7.15862e+10 1.07493e+10 6.5436e+09 1.33679e+09 8.98619e+08 7.18261e+08 5.3963e+08 3.49699e+08 2.46135e+08 1.79169e+08 1.60175e+08 1.24255e+08 1.23157e+08 9.91893e+07 9.54893e+07 1.34449e+08 2.39027e+08 8.33784e+07 7.6977e+07 8.32564e+07 5.93331e+07 5.71694e+07 5.71063e+07 4.47546e+07 4.09313e+07 4.6998e+07 2.93063e+06
threshold=1.8734810580504788 1.0000000180025095e-35 0.30283510294387855 -0.095427810883075184 -0.24750571931808193 0.86991648234560881 -0.48331718992005629 1.0653030891262947 1.3661126893221227 -0.47690179373350033 1.0000000180025095e-35 -1.0245666628420669 -0.76044248343436527 1.0000000180025095e-35 1.0000000180025095e-35 1.0000000180025095e-35 -0.83132765585958157 -0.90221282828479776 0.037767861533484624 1.0000000180025095e-35 0.58637579264474371 1.0000000180025095e-35 1.0000000180025095e-35 0.78547119790115005 -1.1857535179856626 1.0000000180025095e-35 -0.23458229949038092
decision_type=2 2 2 2 2 2 2 2 2 2 2 2 2 2 2 2 2 2 2 2 2 2 2 2 2 2 2
left_child=1 2 6 -2 11 18 9 -5 21 22 14 -3 -12 -10 17 16 -16 -8 -4 -20 -21 23 24 -7 25 -1 -19
right_child=3 4 5 7 -6 8 10 -9 13 -11 12 -13 -14 -15 15 -17 -18 26 19 20 -22 -23 -24 -25 -26 -27 -28
leaf_value=12746.799919347177 14455.266969372755 13471.891336205668 13071.304752908798 14759.840015616355 13923.676021338539 13306.672359886781 12862.496504284863 15031.610012585645 13344.610917921169 12949.831904254555 12793.422148816113 13634.056244139465 12957.123086225691 13476.546480061535 13199.494987283799 12928.310325695997 12992.401534224215 12972.681725232129 13257.085777488837 13084.776754389131 13189.49285595762 13345.299836840724 12753.935644604688 13217.483612133985 12873.520464594574 12849.223719924614 12999.12704183813
leaf_weight=21 32 21 22 29 27 22 20 20 29 29 20 27 27 28 22 24 38 20 23 24 31 21 32 39 35 24 22
leaf_count=21 32 21 22 29 27 22 20 20 29 29 20 27 27 28 22 24 38 20 23 24 31 21 32 39 35 24 22
internal_value=13305.2 13130 13056.4 14706.6 13692.9 13256.1 12913.4 14870.8 13329.6 12839.1 12967.7 13563.1 12887.5 13409.4 12993.6 13028.3 13068.3 12946.5 13153.9 13177.2 13143.8 13274.1 12810.4 13249.7 12833 12801.4 12986.5
internal_weight=729 648 573 81 75 239 334 49 139 141 193 48 47 57 146 84 60 62 100 78 55 82 112 61 80 45 42
internal_count=729 648 573 81 75 239 334 49 139 141 193 48 47 57 146 84 60 62 100 78 55 82 112 61 80 45 42
is_linear=0
shrinkage=1


Tree=1
num_leaves=27
num_cat=0
split_feature=4 3 0 5 5 0 2 5 0 0 6 1 5 5 5 13 0 0 0 5 0 13 5 2 5 5
split_gain=6.46066e+10 9.72821e+09 5.7112e+09 1.20645e+09 6.84211e+08 6.4823e+08 4.4905e+08 3.15604e+08 2.66633e+08 2.22137e+08 8.95184e+07 7.92973e+07 9.60952e+07 7.57319e+07 7.25147e+07 7.11307e+07 1.22016e+08 1.00162e+08 6.83121e+07 5.44713e+07 9.35856e+07 5.36775e+07 5.15672e+07 3.95479e+07 3.90728e+07 3.72983e+07
threshold=1.8734810580504788 0.62918440878444681 0.30283510294387855 -0.095427810883075184 -0.24750571931808193 0.86991648234560881 1.0000000180025095e-35 1.0653030891262947 -0.90221282828479776 1.3661126893221227 1.0000000180025095e-35 -0.53665141591436705 0.48483089281246028 -0.97528782225824495 -0.23458229949038092 1.0000000180025095e-35 -0.83132765585958157 -0.33513144888306773 -0.61867213858393277 -1.1262460805172834 -1.4692942076865279 1.0000000180025095e-35 0.81615245929092339 -0.48331718992005629 -0.0067809314849125992 0.91806909098647249
decision_type=2 2 2 2 2 2 2 2 2 2 2 2 2 2 2 2 2 2 2 2 2 2 2 2 2 2
left_child=1 2 6 -2 18 11 8 -5 13 21 -11 -4 -13 19 23 16 -8 -18 -3 20 -1 22 -7 -10 -16 -14
right_child=3 4 5 7 -6 9 15 -9 14 10 -12 12 25 -15 24 -17 17 -19 -20 -21 -22 -23 -24 -25 -26 -27
leaf_value=-375.87036711374918 1093.5366149902345 202.87862497965497 -210.76862874348959 1382.8810479525864 588.5252567997685 60.073849487304692 -176.10356508452318 1641.0625683593751 -424.0334464518229 38.413394293291816 163.75217655045648 -24.121084449404762 -192.98900387103743 -511.29252679286856 -247.88917205810549 -360.22157426313925 -388.7875883556548 -250.66254778180806 328.95451993075289 -365.13343791961671 -502.64518449113177 -91.41650950113933 -38.024180149387668 -340.62178096064815 -338.11207865397137 -105.57885874872623
leaf_weight=24 32 21 30 29 27 21 29 20 30 29 28 21 26 39 20 22 21 35 22 25 37 24 37 27 30 23
leaf_count=24 32 21 30 29 27 21 29 20 30 29 28 21 26 39 20 22 21 35 22 25 37 24 37 27 30 23
internal_value=0.978926 -165.439 -232.858 1332.32 391.252 -45.6733 -364.826 1488.26 -403.907 24.1706 99.9833 -142.756 -113.608 -453.5 -345.971 -280.09 -259.35 -302.459 267.383 -427.292 -452.767 -28.5285 -2.50593 -384.523 -302.023 -151.96
internal_weight=729 648 578 81 70 239 339 49 232 139 57 100 70 125 107 107 85 56 43 86 61 82 58 57 50 49
internal_count=729 648 578 81 70 239 339 49 232 139 57 100 70 125 107 107 85 56 43 86 61 82 58 57 50 49
is_linear=0
shrinkage=0.05


Tree=2
num_leaves=27
num_cat=0
split_feature=4 4 0 5 5 0 2 5 0 10 5 5 6 5 11 5 6 0 19 2 0 5 12 15 0 19
split_gain=5.83074e+10 8.80112e+09 5.35523e+09 1.08882e+09 7.22638e+08 6.44405e+08 4.15312e+08 2.84832e+08 2.00478e+08 1.53505e+08 1.40355e+08 9.66751e+07 8.07903e+07 8.01498e+07 8.01069e+07 1.63903e+08 9.0063e+07 7.88646e+07 6.0604e+07 5.18962e+07 4.52607e+07 3.75322e+07 3.68745e+07 2.77754e+07 2.08816e+07 4.17835e+07
threshold=1.8734810580504788 1.0000000180025095e-35 0.23194993051866231 -0.095427810883075184 -0.24750571931808193 0.86991648234560881 -0.48331718992005629 1.0653030891262947 1.3661126893221227 1.0000000180025095e-35 -0.54111025656371714 -1.0245666628420669 1.0000000180025095e-35 0.037767861533484624 1.0000000180025095e-35 -0.98084811889483292 1.0000000180025095e-35 -0.68955731100914897 1.0000000180025095e-35 1.0000000180025095e-35 0.58637579264474371 0.78547119790115005 1.0000000180025095e-35 1.0000000180025095e-35 -1.1857535179856626 1.0000000180025095e-35
decision_type=2 2 2 2 2 2 2 2 2 2 2 2 2 2 2 2 2 2 2 2 2 2 2 2 2 2
left_child=1 2 6 -2 11 13 10 -5 19 14 22 -3 -10 -4 15 -8 -16 -11 -15 21 -20 -7 24 -17 25 -1
right_child=3 4 5 7 -6 8 9 -9 12 17 -12 -13 -14 18 16 23 -18 -19 20 -21 -22 -23 -24 -25 -26 -27
leaf_value=-506.81511230468755 1038.8598571777345 155.29991396949404 -218.33055761718754 1313.7369940396013 559.0989872685185 1.7781502463600853 -488.70795410156256 1559.0094433593749 36.49272794887937 -154.27115386962893 -337.35743590460885 298.33957248263886 155.56457005228316 -49.218699137369796 -349.19345421424282 -293.05730979225854 -216.27915454101563 -286.3363243689904 -189.53647052219935 40.691117877051944 -101.83702884797128 -79.897586157383074 -501.00926077706475 -356.15179459855364 -401.45485168457031 -410.24035123189287
leaf_weight=21 32 21 25 29 27 22 20 20 29 20 36 27 28 24 26 33 25 26 28 21 31 39 28 37 30 24
leaf_count=21 32 21 25 29 27 22 20 20 29 20 36 27 28 24 26 33 25 26 28 21 31 39 28 37 30 24
internal_value=0.929983 -157.167 -223.833 1265.7 352.162 -48.2257 -356.885 1413.85 22.962 -308.229 -422.343 235.76 94.9842 -139.847 -334.104 -362.474 -284.039 -228.917 -116.207 -27.1021 -143.457 -50.4408 -452.047 -326.407 -433.767 -455.309
internal_weight=729 648 573 81 75 247 326 49 139 187 139 48 57 108 141 90 51 46 83 82 59 61 103 70 75 45
internal_count=729 648 573 81 75 247 326 49 139 187 139 48 57 108 141 90 51 46 83 82 59 61 103 70 75 45
is_linear=0
shrinkage=0.05


Tree=3
num_leaves=28
num_cat=0
split_feature=3 1 5 5 5 16 2 1 1 5 5 5 1 5 13 5 18 3 2 11 1 5 5 5 1 5 1
split_gain=4.88331e+10 1.2108e+10 3.95169e+09 1.10513e+09 6.22172e+08 5.86682e+08 3.91976e+08 2.70331e+08 1.85321e+08 1.82055e+08 1.80753e+08 1.75866e+08 1.37203e+08 1.16368e+08 9.8037e+07 1.11488e+08 9.54738e+07 8.88273e+07 5.31255e+07 8.3125e+07 4.50267e+07 3.09788e+07 2.17856e+07 1.91369e+07 4.10388e+07 1.85159e+07 1.83014e+07
threshold=1.0000000180025095e-35 -0.14136464396226278 0.037767861533484624 -0.095427810883075184 -0.24750571931808193 1.0000000180025095e-35 -0.48331718992005629 1.3983869092064078 -0.1649032813064335 1.5372925696617836 1.0653030891262947 -0.58670279127157599 -0.72658386896732929 0.86234277333001963 1.0000000180025095e-35 -0.48267021051466358 1.0000000180025095e-35 1.342656445427177 1.0000000180025095e-35 1.0000000180025095e-35 0.16707267296135073 -0.67716198578507691 0.82463523265800476 -0.97528782225824495 -0.53665141591436705 0.369393061957973 0.71820145767485999
decision_type=2 2 2 2 2 2 2 2 2 2 2 2 2 2 2 2 2 2 2 2 2 2 2 2 2 2 2
left_child=2 4 6 -3 17 7 11 9 -7 12 -5 23 -4 25 16 -16 18 -2 21 -20 22 -8 -14 24 -1 -10 -27
right_child=1 3 5 10 -6 8 14 -9 13 -11 -12 -13 20 -15 15 -17 -18 -19 19 -21 -22 -23 -24 -25 -26 26 -28
leaf_value=-452.19826444738055 161.40444566836726 986.91679229736337 93.509373142408293 1284.2526541573661 520.5452819824219 -31.785586825284096 -371.39529389880954 -149.54945648057122 -262.42118072509766 123.15453599294027 1481.0589453125001 -293.6086903725901 -47.131887817382818 -89.528713073730472 -421.81394042968753 -264.06188209170386 -187.5752405166626 297.91490811434659 -302.97344674775098 -175.72098911830358 -92.241167326896431 -288.23929850260419 24.971021862030028 -458.84597930908205 -373.92591192072086 -173.04889770507813 -240.69024612426756
leaf_weight=34 26 32 23 28 28 22 21 28 24 33 20 31 22 20 24 21 32 22 33 21 31 24 20 36 33 20 20
leaf_count=34 26 32 23 28 28 22 21 28 24 33 20 31 22 20 24 21 32 22 33 21 31 24 20 36 33 20 20
internal_value=0.883478 785.176 -212.641 1214.52 333.236 -70.0847 -333.584 -8.7231 -160.969 21.8439 1366.26 -398.02 -12.9817 -194.803 -284.526 -348.196 -262.654 223.972 -286.922 -253.486 -46.5337 -327.045 -12.7972 -429.444 -413.646 -227.701 -206.87
internal_weight=729 156 573 80 76 263 310 157 106 129 48 134 96 84 176 45 131 48 99 54 73 45 42 103 67 64 40
internal_count=729 156 573 80 76 263 310 157 106 129 48 134 96 84 176 45 131 48 99 54 73 45 42 103 67 64 40
is_linear=0
shrinkage=0.05


Tree=4
num_leaves=27
num_cat=0
split_feature=4 3 0 5 0 5 2 5 0 0 12 0 1 6 5 5 10 5 5 12 0 5 0 2 2 1
split_gain=4.74771e+10 7.17407e+09 4.25865e+09 8.85322e+08 5.25616e+08 5.01431e+08 3.12999e+08 2.33033e+08 1.87704e+08 1.64669e+08 1.07006e+08 1.19556e+08 7.53134e+07 7.20949e+07 6.65339e+07 5.57589e+07 5.19579e+07 1.04766e+08 5.15656e+07 5.15006e+07 5.02796e+07 4.37415e+07 3.82369e+07 3.32804e+07 3.02915e+07 2.37637e+07
threshold=1.8734810580504788 0.62918440878444681 0.23194993051866231 -0.095427810883075184 0.86991648234560881 -0.24750571931808193 1.0000000180025095e-35 1.0653030891262947 -0.90221282828479776 1.3661126893221227 1.0000000180025095e-35 -0.83132765585958157 -0.53665141591436705 1.0000000180025095e-35 -0.97528782225824495 0.48483089281246028 1.0000000180025095e-35 -1.1400851464634669 -0.23458229949038092 1.0000000180025095e-35 -0.61867213858393277 1.0000000180025095e-35 0.58637579264474371 1.1981770336157676 -0.48331718992005629 -0.14136464396226278
decision_type=2 2 2 2 2 2 2 2 2 2 2 2 2 2 2 2 2 2 2 2 2 2 2 2 2 2
left_child=1 2 6 -2 12 20 8 -5 14 19 11 -8 -4 -11 16 -14 17 -1 24 25 -3 -20 -17 -13 -10 -6
right_child=3 5 4 7 9 -7 10 -9 18 13 -12 23 15 -15 -16 22 -18 -19 21 -21 -22 -23 -24 -25 -26 -27
leaf_value=-445.86750217013889 937.57098999023447 174.85604891095844 -188.29862948330967 1185.1542303677263 -90.562581961495539 505.11676070601857 -138.89649871826174 1407.0060156250001 -367.23869881465521 31.706145253674737 -340.30231296705165 -301.29525844029018 -32.832676630434783 144.18782383714404 -445.10836385091147 -178.421673874628 -311.88788809940735 -305.34171607607885 -204.71820625305179 41.751937311345884 283.01915949041194 -303.07271869365985 -91.039575392200106 -220.12326978600547 -293.64453577112266 -24.590442383595004
leaf_weight=36 32 21 33 29 21 27 30 20 29 29 23 28 23 28 39 21 29 21 20 22 22 26 31 23 27 39
leaf_count=36 32 21 33 29 21 27 30 20 29 29 23 28 23 28 39 21 29 21 20 22 22 26 31 23 27 39
internal_value=0.839307 -141.821 -199.717 1142.12 -42.6059 336.236 -316.957 1275.71 -349.868 21.6866 -245.125 -218.099 -125.353 86.9603 -390.939 -97.6564 -366.374 -394.095 -299.535 -23.6866 230.195 -260.31 -126.328 -264.688 -331.756 -47.6807
internal_weight=729 648 578 81 247 70 331 49 227 139 104 81 108 57 125 75 86 57 102 82 43 46 52 51 56 60
internal_count=729 648 578 81 247 70 331 49 227 139 104 81 108 57 125 75 86 57 102 82 43 46 52 51 56 60
is_linear=0
shrinkage=0.05


Tree=5
num_leaves=28
num_cat=0
split_feature=4 3 0 5 4 5 0 0 2 10 11 10 0 2 6 0 5 0 0 6 0 5 12 0 19 5 5
split_gain=4.27787e+10 5.79744e+09 3.81905e+09 8.11608e+08 4.31922e+08 4.27161e+08 3.74186e+08 3.70757e+08 3.0684e+08 1.3858e+08 1.25733e+08 1.20348e+08 1.02819e+08 1.85922e+08 6.53337e+07 6.49919e+07 4.63872e+07 4.35304e+07 3.57777e+07 3.50282e+07 3.84977e+07 3.16966e+07 2.57043e+07 2.53864e+07 6.68784e+06 3.37421e+06 946632
threshold=1.8351284234559893 1.0000000180025095e-35 0.30283510294387855 1.0480054427636671 2.3127571099523099 -0.24750571931808193 -0.47690179373350033 0.86991648234560881 -0.48331718992005629 1.0000000180025095e-35 1.0000000180025095e-35 1.0000000180025095e-35 1.3661126893221227 -0.48331718992005629 1.0000000180025095e-35 1.1534571720464739 0.20412130971208617 1.0116868271960413 0.51549062021952741 1.0000000180025095e-35 -1.1857535179856626 -0.22264094570685508 1.0000000180025095e-35 -0.12247593160741903 1.0000000180025095e-35 1.5242363099826965 0.74310477386980989
decision_type=2 2 2 2 2 2 2 2 2 2 2 2 2 2 2 2 2 2 2 2 2 2 2 2 2 2 2
left_child=1 2 6 4 -2 -3 8 11 19 10 22 18 15 25 16 17 21 -9 -4 24 -21 -8 -10 -16 -1 -14 -20
right_child=3 5 7 -5 -6 -7 14 12 9 -11 -12 -13 13 -15 23 -17 -18 -19 26 20 -22 -23 -24 -25 -26 -27 -28
leaf_value=-446.36922084263398 857.46172258649551 204.3576376890525 -184.3983719889323 1308.8692050781251 1136.387546705163 463.07382812500003 -182.90803396606447 -34.985386403401691 -392.13058445142667 -168.06016546885175 -222.42321251178612 -13.464982477823893 18.10357591538202 188.29321151733399 -305.86509638247287 -72.96800668504504 -133.45675659179688 56.780978611537392 -105.79848083496096 -399.41481480189736 -313.78246467227029 -265.19746066006746 -320.20030020254632 -239.31026964689556 -409.31912042025863 -9.9164906588467687 -120.39272924804689
leaf_weight=21 35 39 30 25 23 27 25 24 23 24 29 24 21 20 23 36 22 28 20 35 21 22 27 38 29 22 25
leaf_count=21 35 39 30 25 23 27 25 24 23 24 29 24 21 20 23 36 22 28 20 35 21 22 27 38 29 22 25
internal_value=1.32822 -134.183 -183.977 1070.72 968.07 310.196 -293.312 -35.7186 -334.742 -273.283 -305.249 -110.918 13.5844 62.3472 -226.706 -21.3253 -193.378 14.4273 -142.103 -394.462 -367.303 -221.426 -353.288 -264.405 -424.88 3.76773 -113.906
internal_weight=738 655 589 83 58 66 339 250 209 103 79 99 151 63 130 88 69 52 75 106 56 47 50 61 50 43 45
internal_count=738 655 589 83 58 66 339 250 209 103 79 99 151 63 130 88 69 52 75 106 56 47 50 61 50 43 45
is_linear=0
shrinkage=0.05


Tree=6
num_leaves=28
num_cat=0
split_feature=4 3 0 1 5 0 0 0 5 10 5 1 12 6 0 6 0 0 5 5 0 5 0 1 0 12 1
split_gain=3.86463e+10 4.16519e+09 3.44669e+09 1.72946e+09 6.98534e+08 3.51377e+08 3.37703e+08 3.34608e+08 1.4852e+08 1.08614e+08 1.03151e+08 1.28726e+08 1.842e+08 1.00034e+08 9.2794e+07 5.89636e+07 5.86552e+07 4.79954e+07 4.18644e+07 3.97074e+07 3.92862e+07 3.3569e+07 3.22893e+07 3.16035e+07 2.29112e+07 2.26455e+07 870671
threshold=1.7426076348466026 1.0000000180025095e-35 0.30283510294387855 -0.039499161662490546 -0.095427810883075184 -0.54778696615871658 -0.47690179373350033 0.86991648234560881 1.0653030891262947 1.0000000180025095e-35 -1.3751262863694758 0.45440638399019057 1.0000000180025095e-35 1.0000000180025095e-35 1.3661126893221227 1.0000000180025095e-35 1.1534571720464739 -1.1148683455604464 0.20412130971208617 1.3802284225193933 1.0116868271960413 -1.0672936521843119 0.51549062021952741 -0.46562966530695643 -0.12247593160741903 1.0000000180025095e-35 0.38866053485647273
decision_type=2 2 2 2 2 2 2 2 2 2 2 2 2 2 2 2 2 2 2 2 2 2 2 2 2 2 2
left_child=1 2 6 -2 -5 -3 10 9 -6 22 -1 12 13 21 16 18 20 -15 23 -16 -9 -12 -4 -8 -17 -13 -24
right_child=3 5 7 4 8 -7 15 14 -10 -11 11 25 -14 17 19 24 -18 -19 -20 -21 -22 -23 26 -25 -26 -27 -28
leaf_value=-425.98638671875 548.71753967285156 103.98910505294801 -175.17845540364584 846.97948369565222 1099.1230055588942 364.1116982949747 -162.7169075012207 -33.236115519205732 1273.5484926970109 -12.79173189798991 -247.32283794403077 -390.89825618968291 -403.46315705672555 -143.55398139953613 13.394072628021242 -290.57184103260869 -69.319606823391382 -241.84391095196762 -126.7839146007191 93.606744032435955 53.941926792689735 -331.52499073949355 -100.43526275634765 -245.64276642975983 -227.34475129780017 -332.75463830196497 -114.43172509765625
leaf_weight=20 20 20 30 23 26 37 20 24 23 24 20 34 23 23 27 23 36 27 22 36 28 29 20 27 38 33 25
leaf_count=20 20 20 30 23 26 37 20 24 23 24 20 34 23 23 27 23 36 27 22 36 28 29 20 27 38 33 25
internal_value=1.26181 -135.282 -174.778 960.04 1074.3 272.841 -278.647 -33.9327 1181 -105.372 -318.005 -306.578 -275.999 -246.386 12.9052 -215.371 -20.2591 -196.631 -183.709 59.2299 13.7059 -297.157 -134.998 -210.355 -251.184 -362.26 -108.211
internal_weight=738 646 589 92 72 57 339 250 49 99 209 189 122 99 151 130 88 50 69 63 52 49 75 47 61 67 45
internal_count=738 646 589 92 72 57 339 250 49 99 209 189 122 99 151 130 88 50 69 63 52 49 75 47 61 67 45
is_linear=0
shrinkage=0.05


Tree=7
num_leaves=28
num_cat=0
split_feature=4 4 0 5 0 1 0 0 10 5 1 12 6 0 6 0 0 5 5 0 5 0 1 1 12 0 1
split_gain=3.48888e+10 4.70536e+09 3.11064e+09 6.60394e+08 3.70568e+08 3.11304e+08 3.04777e+08 3.01984e+08 9.80238e+07 9.30936e+07 1.16175e+08 1.6624e+08 9.02811e+07 8.37466e+07 5.32147e+07 5.29363e+07 4.33159e+07 3.77827e+07 3.58359e+07 3.54558e+07 3.0296e+07 2.91411e+07 2.85222e+07 2.1962e+07 4.16495e+07 2.06774e+07 785781
threshold=1.8351284234559893 1.0000000180025095e-35 0.30283510294387855 -0.16820981660141671 0.16106475809344603 0.57372292501064093 -0.47690179373350033 0.86991648234560881 1.0000000180025095e-35 -1.3751262863694758 0.45440638399019057 1.0000000180025095e-35 1.0000000180025095e-35 1.3661126893221227 1.0000000180025095e-35 1.1534571720464739 -1.1148683455604464 0.20412130971208617 1.3802284225193933 1.0116868271960413 -1.0672936521843119 0.51549062021952741 -0.46562966530695643 1.3472512487690718 1.0000000180025095e-35 -0.12247593160741903 0.38866053485647273
decision_type=2 2 2 2 2 2 2 2 2 2 2 2 2 2 2 2 2 2 2 2 2 2 2 2 2 2 2
left_child=1 2 6 -2 -3 -5 9 8 21 -1 11 12 20 15 17 19 -14 22 -15 -9 -11 -4 -8 24 -12 -16 -23
right_child=3 4 7 5 -6 -7 14 13 -10 10 23 -13 16 18 25 -17 -18 -19 -20 -21 -22 26 -24 -25 -26 -27 -28
leaf_value=-404.68706665039065 745.81974029541016 180.58489576975506 -166.41952799479168 913.2156656016474 421.55423810040514 1148.7060533311633 -154.581063079834 -31.574311065673829 -12.152148564656576 -234.95670246124268 -367.15577050781252 -383.28999766474186 -136.37628306513247 12.724367713928224 -276.04324685801629 -65.853626293606226 -229.75171621817131 -120.44472066705879 88.926405800713439 51.244832066127231 -314.94874309671337 -95.413500061035165 -233.36062237774888 -385.08880171342332 -270.35118286132814 -215.97751400596218 -108.71014062500001
leaf_weight=20 24 39 30 23 27 36 20 24 24 20 25 23 23 27 23 36 27 22 36 28 29 20 27 22 20 38 25
leaf_count=20 24 39 30 23 27 36 20 24 24 20 25 23 23 27 23 36 27 22 36 28 29 20 27 22 20 38 25
internal_value=1.19872 -121.179 -166.039 966.952 279.163 1056.9 -264.714 -32.236 -100.104 -302.105 -291.249 -262.199 -234.067 12.2599 -204.602 -19.2461 -186.799 -174.524 56.2684 13.0206 -282.299 -128.248 -199.837 -344.147 -324.132 -238.625 -102.801
internal_weight=738 655 589 83 66 59 339 250 99 209 189 122 99 151 130 88 50 69 63 52 49 75 47 67 45 61 45
internal_count=738 655 589 83 66 59 339 250 99 209 189 122 99 151 130 88 50 69 63 52 49 75 47 67 45 61 45
is_linear=0
shrinkage=0.05


Tree=8
num_leaves=28
num_cat=0
split_feature=4 3 5 1 5 17 2 3 10 16 5 1 5 10 1 12 13 5 5 1 12 5 1 5 1 1 1
split_gain=3.15292e+10 3.37341e+09 2.3773e+09 1.43882e+09 5.74415e+08 4.27156e+08 3.67345e+08 2.97377e+08 1.76332e+08 1.51889e+08 1.24633e+08 9.96714e+07 9.46933e+07 9.78594e+07 8.67023e+07 8.25328e+07 4.84733e+07 8.2315e+07 4.77445e+07 5.04524e+07 3.94491e+07 4.47477e+07 7.3832e+07 3.61189e+07 3.44975e+07 3.2483e+07 1.91881e+07
threshold=1.7426076348466026 1.0000000180025095e-35 0.13686639066748615 -0.039499161662490546 -0.095427810883075184 1.0000000180025095e-35 -0.48331718992005629 1.4021124484807379 1.0000000180025095e-35 1.0000000180025095e-35 -0.28824011088953633 -0.46562966530695643 -0.30070807979819936 1.0000000180025095e-35 0.94750025249307279 1.0000000180025095e-35 1.0000000180025095e-35 -0.65480693650896549 1.5719305609106988 0.092804213754743833 1.0000000180025095e-35 -1.1262460805172834 -0.33900802993831497 -0.15859790449755398 -0.66895479133160152 0.48971434000644648 -1.0881860392027758
decision_type=2 2 2 2 2 2 2 2 2 2 2 2 2 2 2 2 2 2 2 2 2 2 2 2 2 2 2
left_child=1 2 6 -2 -5 8 10 -3 14 -6 20 12 13 26 25 18 17 -13 19 24 21 -1 -23 -19 -7 -4 -8
right_child=3 7 5 4 9 15 11 -9 -10 -11 -12 16 -14 -15 -16 -17 -18 23 -20 -21 -22 22 -24 -25 -26 -27 -28
leaf_value=-359.80191894531254 491.97175720214847 89.760404624938971 -156.82883798104746 765.2239576256793 1141.2211139547414 -46.172145146908974 -266.31494299847145 329.0616455078125 -3.7634938557942714 962.1123022460938 -194.25326995849611 -152.62597925821942 -71.073470052083337 -105.80807772549716 -225.54314036051434 70.102376233614407 -298.57047678629556 -297.94216778094955 44.428442792539244 -76.185678585155586 -374.67448191923256 -207.41110168457033 -328.48064189237709 -208.56743591308597 35.21900248209635 -77.7340087890625 -201.7291736105214
leaf_weight=30 20 20 27 23 29 23 23 37 24 20 20 30 21 22 30 39 24 26 27 37 34 20 34 20 30 25 23
leaf_count=30 20 20 27 23 29 23 23 37 24 20 20 30 21 22 30 39 24 26 27 37 34 20 34 20 30 25 23
internal_value=1.13878 -122.193 -157.737 867.144 971.358 -45.5154 -247.652 245.096 -122.966 1068.12 -309.671 -202.369 -163.88 -192.541 -157.854 7.11091 -236.623 -217.061 -13.8863 -31.3807 -329.234 -310.841 -283.64 -259.084 -0.101684 -118.802 -234.022
internal_weight=738 646 589 92 72 262 327 57 106 49 138 189 89 68 82 156 100 76 117 90 118 84 54 46 53 52 46
internal_count=738 646 589 92 72 262 327 57 106 49 138 189 89 68 82 156 100 76 117 90 118 84 54 46 53 52 46
is_linear=0
shrinkage=0.05


Tree=9
num_leaves=27
num_cat=0
split_feature=4 3 0 4 5 2 0 0 0 16 13 2 5 5 5 0 6 5 0 5 13 0 2 0 0 5
split_gain=2.84551e+10 3.0445e+09 2.559e+09 1.26301e+09 4.84686e+08 2.85644e+08 2.68382e+08 2.42217e+08 1.92339e+08 1.44679e+08 1.17106e+08 8.79666e+07 1.61763e+08 6.94224e+07 6.8493e+07 5.62298e+07 4.46631e+07 3.04431e+07 3.52472e+07 2.96242e+07 2.92953e+07 1.71773e+07 1.70881e+07 1.50181e+07 9.06518e+06 7.10862e+06
threshold=1.7426076348466026 1.0000000180025095e-35 0.30283510294387855 1.9345685018118044 -0.095427810883075184 -0.48331718992005629 -0.54778696615871658 0.86991648234560881 -0.47690179373350033 1.0000000180025095e-35 1.0000000180025095e-35 -0.48331718992005629 1.3802284225193933 -0.94387119740544134 0.20412130971208617 -0.47690179373350033 1.0000000180025095e-35 -0.65480693650896549 -0.19336110403263526 0.95436283609730677 1.0000000180025095e-35 -1.4692942076865279 1.0000000180025095e-35 1.5078830341725553 -1.0439831731352303 0.288972764784933
decision_type=2 2 2 2 2 2 2 2 2 2 2 2 2 2 2 2 2 2 2 2 2 2 2 2 2 2
left_child=1 2 5 -2 -5 8 -3 16 20 -6 13 19 -13 -7 17 -12 22 -15 -19 -9 21 -1 -4 -21 -23 -18
right_child=3 6 7 4 9 10 -8 11 -10 -11 15 12 -14 14 -16 -17 25 18 -20 23 -22 24 -24 -25 -26 -27
leaf_value=-309.29987886868992 493.32784874655982 85.272382745742803 -152.04805203951324 733.30611905184662 1090.082212611607 -118.93025126987034 312.60856719145909 15.517518302721854 -188.99112271395597 914.00672851562513 -325.59169178838317 -4.758747991834368 170.77470879327686 -174.39809401939658 -118.99330834475433 -217.26387109375003 -34.462781066894529 -267.0400699013158 -192.32377522786459 -63.664793872833258 -282.25859397605615 -376.33758663054437 -90.573702392578127 -11.3419885913531 -334.37097278941764 -72.239894705107716
leaf_weight=26 22 20 26 22 28 36 37 39 33 20 23 35 21 29 22 25 20 38 27 32 27 31 20 24 22 33
leaf_count=26 22 20 26 22 28 36 37 39 33 20 23 35 21 29 22 25 20 38 27 32 27 31 20 24 22 33
internal_value=1.08184 -116.084 -149.851 823.787 927.645 -239.349 232.841 -28.4899 -294.404 1016.72 -201.087 11.3604 61.0663 -179.587 -198.411 -269.171 -89.2717 -216.998 -236.004 -17.94 -327.221 -342.588 -125.32 -41.2407 -358.917 -57.9844
internal_weight=738 646 589 92 70 339 57 250 139 48 200 151 56 152 116 48 99 94 65 95 106 79 46 56 53 53
internal_count=738 646 589 92 70 339 57 250 139 48 200 151 56 152 116 48 99 94 65 95 106 79 46 56 53 53
is_linear=0
shrinkage=0.05


Tree=10
num_leaves=28
num_cat=0
split_feature=3 1 0 5 2 0 0 0 1 5 0 1 12 6 6 1 0 0 1 5 2 0 0 1 1 1 0
split_gain=2.48455e+10 6.07063e+09 2.70433e+09 5.78854e+08 4.0546e+08 2.44547e+08 2.31243e+08 2.00447e+08 7.61242e+07 2.11523e+08 7.98348e+07 7.02659e+07 6.33227e+07 5.77557e+07 5.25177e+07 1.96699e+08 5.79573e+07 4.28432e+07 4.28315e+07 5.47286e+07 3.90035e+07 5.39808e+07 3.02101e+07 2.74601e+07 2.33393e+07 6.24109e+07 3.03772e+07
threshold=1.0000000180025095e-35 -0.15759818695824238 0.37372027536909486 -0.075838677084037812 1.0000000180025095e-35 1.3661126893221227 -0.90221282828479776 0.23194993051866231 -0.48916830265112682 0.037767861533484624 1.0116868271960413 0.93654261097078673 1.0000000180025095e-35 1.0000000180025095e-35 1.0000000180025095e-35 -0.55247912033544755 -0.40601662130828403 1.1534571720464739 -0.0070320756705310765 1.0265992495688845 -0.48331718992005629 -0.47690179373350033 -0.61867213858393277 -0.20467546164658326 0.45440638399019057 -0.12553693954118259 -1.1857535179856626
decision_type=2 2 2 2 2 2 2 2 2 2 2 2 2 2 2 2 2 2 2 2 2 2 2 2 2 2 2
left_child=2 7 4 -3 6 8 24 22 9 -4 18 -5 14 -7 16 -16 -6 -12 -10 -20 21 -8 -2 -22 25 26 -1
right_child=1 3 5 11 12 13 20 -9 10 -11 17 -13 -14 -15 15 -17 -18 -19 19 -21 23 -23 -24 -25 -26 -27 -28
leaf_value=-361.16055977957592 119.66722923517227 698.51140899658208 -93.334475708007815 922.66098947832677 -227.55305081881011 37.273650864631904 -312.7986025855655 348.39314941406252 -157.46638671875002 108.50156589084202 39.450264393199575 1042.8684594726562 -229.20257275390628 140.58836497465771 -215.6542497907366 -9.9119168795072117 -121.98012343186599 -54.547111172146266 -26.754775369578397 -134.26786376953126 -226.61764294854527 -209.63105955123902 202.87262313842774 -158.92879459011942 -353.03623318142365 -232.77687114368788 -288.12565612792969
leaf_weight=35 24 32 25 31 26 31 21 20 20 27 22 20 25 24 21 26 26 27 29 20 29 32 20 31 36 22 24
leaf_count=35 24 32 25 31 26 31 21 20 20 27 22 20 25 24 21 26 26 27 29 20 29 32 20 31 36 22 24
internal_value=2.55348 583.058 -144.829 865.208 -230.978 -9.28736 -270.268 217.146 -38.9368 11.465 -61.1478 969.801 -158.1 82.3564 -140.145 -101.839 -174.767 -12.3442 -95.8054 -70.6377 -219.254 -250.509 157.488 -191.645 -319.539 -304.651 -331.451
internal_weight=726 147 579 83 354 225 230 64 170 52 118 51 124 55 99 47 52 49 69 49 113 53 44 60 117 81 59
internal_count=726 147 579 83 354 225 230 64 170 52 118 51 124 55 99 47 52 49 69 49 113 53 44 60 117 81 59
is_linear=0
shrinkage=0.05


Tree=11
num_leaves=28
num_cat=0
split_feature=4 4 17 5 5 2 5 14 10 19 4 5 5 2 5 12 13 5 5 5 5 5 20 6 5 4 5
split_gain=2.507e+10 2.61054e+09 1.93575e+09 5.83278e+08 4.94417e+08 3.40661e+08 1.41098e+08 1.05346e+08 8.31598e+07 9.17686e+07 7.79711e+07 5.55578e+07 8.25448e+07 4.79862e+07 9.2069e+07 3.85805e+07 4.48048e+07 2.82198e+07 2.40373e+07 2.09256e+07 1.92942e+07 1.79333e+07 2.39534e+07 1.6619e+07 6.53824e+06 5.12199e+06 991664
threshold=1.8624101944561928 1.0000000180025095e-35 1.0000000180025095e-35 -0.075838677084037812 -0.21565262066786736 1.0000000180025095e-35 -0.26266843949771945 1.0000000180025095e-35 1.0000000180025095e-35 1.0000000180025095e-35 2.3617852201555745 -0.73421670195539024 -1.0154623887417149 -0.48331718992005629 1.3195585646792158 1.0000000180025095e-35 1.0000000180025095e-35 0.27545630990640113 0.80692957818040545 0.95436283609730677 0.60654066236453186 -1.0757906583926133 1.0000000180025095e-35 1.0000000180025095e-35 0.80692957818040545 1.5000371057360955 -0.9262794056576017
decision_type=2 2 2 2 2 2 2 2 2 2 2 2 2 2 2 2 2 2 2 2 2 2 2 2 2 2 2
left_child=1 2 4 -2 5 7 25 15 9 -6 -5 12 -7 19 18 16 -1 -11 -15 20 -4 22 -9 -21 -19 -3 -23
right_child=3 6 13 10 8 11 -8 21 -10 17 -12 -13 -14 14 -16 -17 -18 24 -20 23 -22 26 -24 -25 -26 -27 -28
leaf_value=-174.16253694233143 644.87098453406134 132.55675665537518 -15.087081298828124 861.19641276041682 -70.07611083984375 -171.41960405622211 309.18023914155509 -261.78568334334938 -50.746627345229641 -200.0052546320735 985.12361505681827 -197.02744954427084 -40.282925269717261 45.724692916870119 135.23722343444825 -286.91104492187503 -265.16580578031994 -156.77461090087891 -30.866671135312039 -4.9181698700477341 54.364685382843021 -335.8129438920455 -323.74287297175482 -64.163811798095708 -120.5447657775879 167.91223907470703 -320.42960479736331
leaf_weight=38 33 21 20 30 34 28 21 39 33 37 22 36 21 20 21 20 21 33 21 29 20 22 26 20 20 20 20
leaf_count=38 33 21 20 30 34 28 21 39 33 37 22 36 21 20 21 20 21 33 21 29 20 22 26 20 20 20 20
internal_value=2.4258 -104.568 -137.587 809.287 -191.89 -232.793 203.786 -270.69 -121.286 -140.058 913.627 -149.867 -115.218 16.3306 50.1012 -226.897 -206.554 -166.496 6.49497 -7.19496 19.6388 -303.023 -286.569 -29.1001 -143.103 149.803 -328.488
internal_weight=726 641 579 85 428 271 62 186 157 124 52 85 49 151 62 79 59 90 41 89 40 107 65 49 53 41 42
internal_count=726 641 579 85 428 271 62 186 157 124 52 85 49 151 62 79 59 90 41 89 40 107 65 49 53 41 42
is_linear=0
shrinkage=0.05


Tree=12
num_leaves=29
num_cat=0
split_feature=3 1 0 5 2 0 5 0 0 1 5 5 1 12 6 13 0 13 11 2 0 2 0 0 2 1 1 0
split_gain=2.02368e+10 4.97829e+09 2.22958e+09 4.97383e+08 3.34679e+08 2.12736e+08 1.97285e+08 1.85263e+08 7.8374e+07 7.09141e+07 1.83972e+08 6.83036e+07 5.63057e+07 5.5774e+07 5.30349e+07 4.8495e+07 1.00408e+08 4.22541e+07 4.11938e+07 3.44558e+07 4.51402e+07 3.26503e+07 2.67654e+07 2.57795e+07 2.12695e+07 3.09412e+07 5.04961e+07 2.21537e+07
threshold=1.0000000180025095e-35 -0.14136464396226278 0.37372027536909486 -0.075838677084037812 1.0000000180025095e-35 1.3661126893221227 -0.19355376253371456 -0.90221282828479776 0.86991648234560881 -0.48916830265112682 0.037767861533484624 0.62617249468722946 1.177204885886185 1.0000000180025095e-35 1.0000000180025095e-35 1.0000000180025095e-35 -0.90221282828479776 1.0000000180025095e-35 1.0000000180025095e-35 -0.48331718992005629 -0.47690179373350033 -0.48331718992005629 -0.61867213858393277 -0.40601662130828403 -0.48331718992005629 0.45440638399019057 -0.15556899408374475 -1.2566386904108791
decision_type=2 2 2 2 2 2 2 2 2 2 2 2 2 2 2 2 2 2 2 2 2 2 2 2 2 2 2 2
left_child=2 6 4 -3 7 9 22 24 -5 10 -4 -11 17 15 -7 16 -6 21 -18 20 -9 -13 -2 -21 25 26 27 -1
right_child=1 3 5 8 13 14 -8 19 -10 11 -12 12 -14 -15 -16 -17 18 -19 -20 23 -22 -23 -24 -25 -26 -27 -28 -29
leaf_value=-325.96608428955079 105.25213397343953 631.34230499267585 -84.381325073242195 832.67237467447922 -9.5238714599609384 34.636969350999401 330.05791076660159 -285.30300060453868 960.45308105468757 -130.09951757812502 103.85163619429977 -33.413768310546878 -109.04348783947174 -209.44873876953125 133.63938153783482 -184.50491333007812 -94.354462890625001 -77.75703643798829 -182.65735713413784 -129.94243011474609 -190.96099843978882 45.884434000651048 182.54651939755396 -197.95347482781662 -327.64996654369213 -318.51162353515628 -191.45206817626956 -251.54553588867191
leaf_weight=20 24 32 25 30 20 31 20 21 20 25 27 25 21 25 24 26 25 20 28 22 32 27 21 38 27 30 20 20
leaf_count=20 24 32 25 30 20 31 20 21 20 25 27 25 21 25 24 26 25 20 28 22 32 27 21 38 27 30 20 20
internal_value=2.30451 526.21 -130.708 785.271 -208.93 -7.63757 199.395 -244.627 883.785 -35.2914 13.355 -56.7289 -37.0056 -142.718 77.838 -125.867 -104.983 -15.9945 -141.005 -198.965 -228.342 7.7603 141.323 -173.016 -288.728 -277.051 -256.321 -288.756
internal_weight=726 147 579 82 354 225 65 230 50 170 52 118 93 124 55 99 73 72 53 113 53 52 45 60 117 90 60 40
internal_count=726 147 579 82 354 225 65 230 50 170 52 118 93 124 55 99 73 72 53 113 53 52 45 60 117 90 60 40
is_linear=0
shrinkage=0.05


Tree=13
num_leaves=28
num_cat=0
split_feature=4 3 5 5 17 2 14 5 10 1 1 3 1 5 12 1 5 1 1 5 5 1 3 1 1 2 5
split_gain=2.04577e+10 2.29886e+09 1.58754e+09 4.48888e+08 3.23151e+08 2.23192e+08 1.81716e+08 1.7805e+08 1.42825e+08 8.33858e+07 8.22378e+07 7.07325e+07 6.81065e+07 1.81625e+08 1.2157e+08 4.63144e+07 4.44651e+07 1.64259e+08 4.96601e+07 3.31666e+07 2.80712e+07 2.59303e+07 2.41558e+07 2.06819e+07 5.36552e+07 1.71467e+07 7.68811e+06
threshold=1.8734810580504788 1.0000000180025095e-35 0.037767861533484624 -0.075838677084037812 1.0000000180025095e-35 1.0000000180025095e-35 1.0000000180025095e-35 -0.19355376253371456 1.0000000180025095e-35 0.94750025249307279 -0.91854551489478864 2.5912325095519546 1.1479845084934215 1.5719305609106988 1.0000000180025095e-35 0.10944359532562285 -0.73421670195539024 -0.60564397364728073 -0.56830682475652772 0.62617249468722946 -0.22114649737876207 0.18371205453222972 1.342656445427177 0.45440638399019057 -0.12553693954118259 -0.48331718992005629 -1.3025293075869933
decision_type=2 2 2 2 2 2 2 2 2 2 2 2 2 2 2 2 2 2 2 2 2 2 2 2 2 2 2
left_child=1 2 5 -2 8 6 10 22 9 21 -1 -5 13 14 15 19 17 -7 -18 -6 25 -4 -3 24 26 -12 -8
right_child=3 7 4 11 12 16 23 -9 -10 -11 20 -13 -14 -15 -16 -17 18 -19 -20 -21 -22 -23 -24 -25 -26 -27 -28
leaf_value=-111.08310979207357 599.77517242431645 99.989527384440109 -49.910566650390628 791.03875488281255 -35.11413629972018 -183.81928405761721 -263.91718511166778 313.55501098632817 18.47614579634233 -189.9564205046623 -263.14960007440476 912.4304272460937 -58.765983851750697 171.09912433624268 107.19794311523438 -76.561497554072631 -115.6137446476863 1.1690162295386906 -206.29792073567711 45.544079315185549 -159.67249174572174 -117.87252492904663 173.41919279552644 -306.46389308120268 -191.22871384393602 -205.68607285443474 -302.34036539713543
leaf_weight=30 32 24 25 30 26 28 23 20 22 31 21 20 24 20 23 27 26 21 36 25 21 32 21 33 21 34 30
leaf_count=30 32 24 25 30 26 28 23 20 22 31 21 20 24 20 23 27 26 21 36 25 21 32 21 33 21 34 30
internal_value=2.18929 -92.5204 -124.172 746.007 -30.848 -197.622 -227.58 189.425 -95.4714 -123.958 -181.18 839.595 18.1767 33.4381 6.17848 -23.6093 -140.136 -104.539 -168.269 4.4242 -208.85 -88.0646 134.257 -273.546 -258.866 -227.627 -285.666
internal_weight=726 644 579 82 255 324 213 65 110 88 106 50 145 121 101 78 111 49 62 51 76 57 45 107 74 55 53
internal_count=726 644 579 82 255 324 213 65 110 88 106 50 145 121 101 78 111 49 62 51 76 57 45 107 74 55 53
is_linear=0
shrinkage=0.05


Tree=14
num_leaves=29
num_cat=0
split_feature=4 3 5 3 17 5 14 4 1 11 18 1 5 12 5 1 1 1 1 1 5 5 12 6 5 5 3 6
split_gain=1.84631e+10 2.07472e+09 1.43275e+09 4.06634e+08 2.91644e+08 1.6069e+08 1.55653e+08 1.44154e+08 1.07733e+08 9.63766e+07 7.53532e+07 6.14662e+07 1.63917e+08 1.09716e+08 5.83931e+07 1.65833e+08 5.08358e+07 4.7811e+07 6.61997e+07 4.17987e+07 3.80306e+07 2.99328e+07 2.81226e+07 3.38466e+07 3.71567e+07 2.7498e+07 2.18006e+07 1.64265e+07
threshold=1.8734810580504788 1.0000000180025095e-35 0.037767861533484624 2.1155844851234678 1.0000000180025095e-35 -0.19355376253371456 1.0000000180025095e-35 2.2664967156476163 1.4600743725911303 1.0000000180025095e-35 1.0000000180025095e-35 1.1479845084934215 1.5719305609106988 1.0000000180025095e-35 -1.1400851464634669 0.45440638399019057 -1.3832306831547061 0.81235600705154176 -0.070342893354851818 0.10944359532562285 0.369393061957973 0.62617249468722946 1.0000000180025095e-35 1.0000000180025095e-35 -0.48267021051466358 -0.23458229949038092 1.342656445427177 1.0000000180025095e-35
decision_type=2 2 2 2 2 2 2 2 2 2 2 2 2 2 2 2 2 2 2 2 2 2 2 2 2 2 2 2
left_child=1 2 6 7 8 26 10 -2 17 14 22 12 13 19 27 -16 -12 18 -4 21 -20 -6 23 25 -25 -1 -3 -8
right_child=3 5 4 -5 11 -7 9 -9 -10 -11 16 -13 -14 -15 15 -17 -18 -19 20 -21 -22 -23 -24 24 -26 -27 -28 -29
leaf_value=-220.56015144116952 514.73122780539768 94.990049711863207 -13.031959170386905 828.5184313322369 -33.358428104107197 297.87726196289066 -322.86471835049718 695.73458362926146 -189.66199229847302 -151.71459527784779 -164.98789891782016 -55.827684529622402 162.54416542053224 101.83804772418479 -106.50105736142115 -288.47804939516129 -66.87932443926411 -0.12740391322544642 -165.63373121178668 -72.733422554863822 -74.707805733058763 43.2668727722168 -217.10227085658482 -82.414511718750006 -172.33125316478589 -147.37032964797248 164.74823590233214 -265.56970320076783
leaf_weight=33 22 24 21 38 26 20 22 22 22 31 23 24 20 23 21 31 31 21 23 27 23 25 35 20 27 21 21 29
leaf_count=33 22 24 21 38 26 20 22 22 22 31 23 24 20 23 21 31 31 21 23 27 23 25 35 20 27 21 21 29
internal_value=2.07982 -87.8944 -117.964 708.707 -29.3056 179.954 -187.741 605.233 -90.6979 -229.008 -158.637 17.2679 31.7662 5.86956 -252.271 -214.987 -108.666 -65.9568 -86.5899 -22.4288 -120.171 4.20299 -178.478 -165.094 -134.069 -192.097 127.544 -290.285
internal_weight=726 644 579 82 255 65 324 44 110 134 190 145 121 101 103 52 54 88 67 78 46 51 136 101 47 54 45 51
internal_count=726 644 579 82 255 65 324 44 110 134 190 145 121 101 103 52 54 88 67 78 46 51 136 101 47 54 45 51
is_linear=0
shrinkage=0.05


Tree=15
num_leaves=27
num_cat=0
split_feature=8 1 0 0 0 0 1 2 6 10 11 0 0 0 6 1 10 2 1 1 1 15 1 20 1 2
split_gain=1.53018e+10 3.58976e+09 1.38143e+09 2.84022e+08 2.82208e+08 1.62846e+08 1.15872e+08 1.06376e+08 1.24014e+08 1.55989e+08 9.82045e+07 9.4375e+07 6.37659e+07 6.12959e+07 5.83374e+07 4.98874e+07 3.88178e+07 3.41728e+07 2.9955e+07 2.90171e+07 3.61452e+07 2.33214e+07 1.58336e+07 1.55237e+07 1.22795e+07 3.85692e+06
threshold=1.0000000180025095e-35 -0.17220837565462435 0.23194993051866231 -0.76044248343436527 1.3661126893221227 -0.54778696615871658 0.57372292501064093 -0.48331718992005629 1.0000000180025095e-35 1.0000000180025095e-35 1.0000000180025095e-35 1.5787682065977715 0.86991648234560881 -0.83132765585958157 1.0000000180025095e-35 -0.63161764244084817 1.0000000180025095e-35 1.0000000180025095e-35 -0.81749170974481522 0.4385786795691104 -0.53665141591436705 1.0000000180025095e-35 -0.14136464396226278 1.0000000180025095e-35 0.71820145767485999 1.0000000180025095e-35
decision_type=2 2 2 2 2 2 2 2 2 2 2 2 2 2 2 2 2 2 2 2 2 2 2 2 2 2
left_child=1 5 7 -3 12 -1 -5 13 15 10 23 -6 16 19 -15 -9 24 22 -7 20 -2 -17 -14 -10 25 -4
right_child=2 3 4 6 11 18 -8 8 9 -11 -12 -13 17 14 -16 21 -18 -19 -20 -21 -22 -23 -24 -25 -26 -27
leaf_value=82.857534953526098 -257.56312408447269 514.29660219938864 -124.12613067626954 631.90408670176635 124.10083898728895 196.80741460561754 774.09382452713817 -253.21884007947199 -228.73594748757102 2.4744123186383931 -71.222921620244563 -0.29961978912353521 -76.0812008197491 -107.98995884486608 -221.03276611328124 -144.67031601414536 -34.51519522831358 26.236978357488461 283.34497222900393 -276.70539550781251 -182.98350321451824 -202.48510841163431 -25.708259817270132 -167.87118591308595 -72.066907165527354 -98.249415906270357
leaf_weight=28 32 23 36 23 31 20 38 29 22 21 23 30 26 21 25 33 29 22 20 34 33 37 39 20 25 24
leaf_count=28 32 23 36 23 31 20 38 29 22 21 23 30 26 21 25 33 29 22 20 34 33 37 39 20 25 24
internal_value=-2.09751 445.403 -116.996 664.026 -31.2768 175.339 720.481 -185.052 -159.92 -115.997 -154.273 62.9203 -59.864 -217.118 -169.426 -198.075 -84.4661 -27.6267 240.076 -239.277 -219.7 -175.23 -45.8574 -199.753 -101.508 -113.775
internal_weight=744 152 592 84 262 68 61 330 185 86 65 61 201 145 46 99 114 87 40 99 65 70 65 42 85 60
internal_count=744 152 592 84 262 68 61 330 185 86 65 61 201 145 46 99 114 87 40 99 65 70 65 42 85 60
is_linear=0
shrinkage=0.05


Tree=16
num_leaves=28
num_cat=0
split_feature=4 3 0 0 0 16 12 0 6 2 6 0 0 0 0 2 10 0 12 19 13 2 2 0 19 6 10
split_gain=1.51679e+10 1.90584e+09 1.1902e+09 2.56329e+08 2.54693e+08 1.00302e+08 9.4031e+07 9.37319e+07 8.76114e+07 6.53946e+07 1.78995e+08 6.19356e+07 5.75487e+07 4.62931e+07 4.73601e+07 4.13883e+07 3.50331e+07 3.21292e+07 3.12707e+07 3.94275e+07 2.37505e+07 1.92055e+07 9.59224e+06 7.59598e+06 7.38251e+06 4.49516e+06 735957
threshold=1.8624101944561928 0.68864041183800773 0.23194993051866231 -0.76044248343436527 1.3661126893221227 1.0000000180025095e-35 1.0000000180025095e-35 0.16106475809344603 1.0000000180025095e-35 1.0000000180025095e-35 1.0000000180025095e-35 -0.54778696615871658 0.86991648234560881 -0.90221282828479776 -1.3984090352613114 -0.48331718992005629 1.0000000180025095e-35 -0.47690179373350033 1.0000000180025095e-35 1.0000000180025095e-35 1.0000000180025095e-35 1.0000000180025095e-35 1.0000000180025095e-35 -1.1148683455604464 1.0000000180025095e-35 1.0000000180025095e-35 1.0000000180025095e-35
decision_type=2 2 2 2 2 2 2 2 2 2 2 2 2 2 2 2 2 2 2 2 2 2 2 2 2 2 2
left_child=1 2 6 -2 12 -5 9 -3 -6 13 17 -12 16 14 -1 23 22 -11 19 -14 26 -17 25 -8 -16 -4 -15
right_child=3 7 4 5 8 -7 15 -9 -10 10 11 -13 18 20 24 21 -18 -19 -20 -21 -22 -23 -24 -25 -26 -27 -28
leaf_value=-158.52851601625102 488.5817839249321 126.62557569561582 -93.934744262695318 737.88647393120664 6.3759308506460748 607.51913476562504 -266.44271428034853 251.00330657958986 127.01662644280327 -228.67187207031253 15.874320068359376 -104.43391935929009 -87.890579400743761 -127.12867082868304 -216.2505404768319 -144.53444946289062 -32.789435445851289 -144.78009788876489 28.620419158935547 -10.123486826970028 -178.06915283203125 -213.82636566162111 -75.348219854181465 -226.01171351841518 -255.73771423339846 -123.42372501918248 -113.72686035156251
leaf_weight=39 23 33 24 36 34 25 26 28 27 25 20 23 28 21 29 20 29 21 20 39 32 20 33 21 20 28 20
leaf_count=39 23 33 24 36 34 25 26 28 27 25 20 23 28 21 29 20 29 21 20 39 32 20 33 21 20 28 20
internal_value=-1.99263 -82.533 -109.647 630.825 -29.713 684.457 -171.791 183.717 59.7743 -156.211 -121.817 -48.4766 -56.8708 -175.224 -199.644 -216.563 -80.2428 -190.373 -26.2453 -42.6232 -145.787 -179.18 -96.4328 -248.378 -232.368 -109.813 -120.591
internal_weight=744 660 599 84 262 61 337 61 61 250 89 43 201 161 88 87 114 46 87 67 73 40 85 47 49 52 41
internal_count=744 660 599 84 262 61 337 61 61 250 89 43 201 161 88 87 114 46 87 67 73 40 85 47 49 52 41
is_linear=0
shrinkage=0.05


Tree=17
num_leaves=27
num_cat=0
split_feature=4 3 0 5 0 1 5 0 12 5 2 6 0 1 1 12 0 5 0 11 5 0 1 1 5 6
split_gain=1.3689e+10 1.72002e+09 1.07416e+09 2.70129e+08 2.29861e+08 1.22234e+08 1.00257e+08 8.55853e+07 8.4863e+07 5.96112e+07 5.90186e+07 1.61543e+08 5.58968e+07 4.91038e+07 6.62547e+07 5.67455e+07 4.17795e+07 4.75383e+07 3.81161e+07 2.93531e+07 2.90785e+07 2.89966e+07 2.71512e+07 2.60051e+07 2.53947e+07 1.15126e+07
threshold=1.8624101944561928 0.68864041183800773 0.23194993051866231 1.0653030891262947 1.3661126893221227 0.73646419354533721 -0.24750571931808193 1.5787682065977715 1.0000000180025095e-35 0.085324528329694449 1.0000000180025095e-35 1.0000000180025095e-35 -0.54778696615871658 1.1605655043153058 0.81235600705154176 1.0000000180025095e-35 -0.90221282828479776 -1.2609362012619363 -0.68955731100914897 1.0000000180025095e-35 -0.17990921208420355 -0.47690179373350033 1.0000000180025095e-35 -0.53665141591436705 -0.67716198578507691 1.0000000180025095e-35
decision_type=2 2 2 2 2 2 2 2 2 2 2 2 2 2 2 2 2 2 2 2 2 2 2 2 2 2
left_child=1 2 8 5 9 -2 -3 -6 10 -4 16 21 -13 14 15 22 17 -1 25 -19 24 -12 23 -11 -18 -10
right_child=3 6 4 -5 7 -7 -8 -9 18 13 11 12 -14 -15 -16 -17 20 19 -20 -21 -22 -23 -24 -25 -26 -27
leaf_value=-143.34784518971162 478.02249200994322 119.28329343523299 -110.42189920074061 741.05389709472661 115.0474383446478 621.47308304398155 248.90324307955231 -3.4183850129445399 -212.93737269810268 -80.599774751209083 -217.23827880859378 15.080598144531251 -99.212223749575415 -101.13897214617049 53.230145699637276 28.722665405273439 -157.72975646972657 -189.41458185369319 -167.26241850981842 -265.03298572358631 -180.92609863281251 -137.54109438941592 -92.330887505947018 -8.9932439804077156 -83.394661006221071 -261.27128462357956
leaf_weight=34 33 35 38 24 31 27 26 30 28 21 25 20 23 28 21 22 20 33 37 21 26 21 39 32 27 22
leaf_count=34 33 35 38 24 31 27 26 30 28 21 25 20 23 28 21 22 20 33 37 21 26 21 39 32 27 22
internal_value=-1.893 -78.4064 -104.165 599.283 -28.2273 542.575 174.531 56.7856 -163.202 -54.0272 -148.4 -115.726 -46.0528 -40.88 -28.3819 -43.4157 -166.463 -189.661 -205.735 -218.822 -138.498 -180.855 -60.6661 -37.3656 -115.027 -234.204
internal_weight=744 660 599 84 262 60 61 61 337 201 250 89 43 163 135 114 161 88 87 54 73 46 92 53 47 50
internal_count=744 660 599 84 262 60 61 61 337 201 250 89 43 163 135 114 161 88 87 54 73 46 92 53 47 50
is_linear=0
shrinkage=0.05


Tree=18
num_leaves=28
num_cat=0
split_feature=3 1 0 0 0 1 0 6 12 1 1 0 6 0 18 0 0 2 1 1 1 2 12 13 0 1 1
split_gain=1.13311e+10 2.54732e+09 9.7534e+08 2.37768e+08 2.07449e+08 1.15146e+08 1.01594e+08 7.94615e+07 7.44039e+07 6.00937e+07 8.88143e+07 1.03882e+08 1.30562e+08 6.95557e+07 6.79651e+07 5.60617e+07 5.111e+07 3.66227e+07 3.51817e+07 3.39851e+07 3.37855e+07 2.95229e+07 2.16336e+07 3.38315e+07 1.94618e+07 1.49819e+07 1.22404e+07
threshold=0.62918440878444681 -0.11539097516869533 0.23194993051866231 0.86991648234560881 1.3661126893221227 0.73646419354533721 -0.54778696615871658 1.0000000180025095e-35 1.0000000180025095e-35 -0.63161764244084817 0.50026614295383298 -0.76044248343436527 1.0000000180025095e-35 -1.1857535179856626 1.0000000180025095e-35 -0.54778696615871658 0.86991648234560881 -0.48331718992005629 0.5396324847190842 -0.80572239107273025 -0.57642359625451733 1.0000000180025095e-35 1.0000000180025095e-35 1.0000000180025095e-35 -0.19336110403263526 0.16707267296135073 -0.14136464396226278
decision_type=2 2 2 2 2 2 2 2 2 2 2 2 2 2 2 2 2 2 2 2 2 2 2 2 2 2 2
left_child=2 6 8 5 16 -3 -2 -6 9 13 11 12 -11 -1 -15 -12 20 25 -19 -8 -4 26 23 -22 -13 -10 -18
right_child=1 3 4 -5 7 -7 19 -9 17 10 15 24 -14 14 -16 -17 21 18 -20 -21 22 -23 -24 -25 -26 -27 -28
leaf_value=-247.69634450276695 87.103343303386993 457.20309797014511 -115.99671899044152 730.31942382812508 3.0921928798451148 596.04369201660154 167.88756830124629 117.98475908350063 -192.57542114257814 -124.25811680385046 -228.2885100188079 -175.53051627022882 31.341724982628456 -213.31875050862632 -105.84278869628906 -119.36237792968751 -65.983564054048983 -207.17544494628908 -113.39155212402343 257.84142368861609 -10.936752772975613 27.600678530606359 -97.01159747579824 -90.394124276297433 -118.0225544591104 -249.67146900318289 -21.693568616035659
leaf_weight=24 26 28 33 20 34 32 21 27 20 28 27 28 26 24 38 21 26 20 20 21 37 22 23 21 31 27 39
leaf_count=24 26 28 33 20 34 32 21 27 20 28 27 28 26 24 38 21 26 20 20 21 37 22 23 21 31 27 39
internal_value=-1.79835 389.773 -99.0343 581.018 -26.8159 531.251 164.779 53.9463 -155.685 -141.679 -123.654 -99.4504 -49.3397 -175.423 -147.446 -180.633 -51.3259 -195.448 -160.283 212.864 -73.3517 -22.4644 -55.9778 -39.7058 -145.314 -225.375 -39.4096
internal_weight=744 148 596 80 262 60 68 61 334 247 161 113 54 86 62 48 201 87 40 42 114 87 81 58 59 47 65
internal_count=744 148 596 80 262 60 68 61 334 247 161 113 54 86 62 48 201 87 40 42 114 87 81 58 59 47 65
is_linear=0
shrinkage=0.05


Tree=19
num_leaves=28
num_cat=0
split_feature=3 1 17 5 5 2 5 1 5 1 10 1 5 2 1 5 1 6 5 5 1 5 10 1 1 1 5
split_gain=1.02263e+10 2.29895e+09 7.90816e+08 2.33887e+08 1.77048e+08 1.20833e+08 1.08086e+08 9.66572e+07 9.27262e+07 6.90751e+07 6.78082e+07 4.60662e+07 8.70333e+07 8.07008e+07 3.7752e+07 4.80294e+07 3.66175e+07 2.83644e+07 2.69085e+07 2.44688e+07 5.1462e+07 1.95585e+07 1.77421e+07 1.64579e+07 1.62078e+07 8.94061e+06 5.72075e+06
threshold=0.62918440878444681 -0.11539097516869533 1.0000000180025095e-35 1.0653030891262947 -0.23458229949038092 1.1981770336157676 -0.24750571931808193 1.2993622969309315 -0.36797723168401958 0.73646419354533721 1.0000000180025095e-35 -0.63161764244084817 -1.0245666628420669 1.0000000180025095e-35 1.0696576635378194 1.4787766151262238 0.020970785997533738 1.0000000180025095e-35 -1.0154623887417149 0.57008561171987193 -0.12229023094198675 0.12546114056991148 1.0000000180025095e-35 -0.97495707680581789 -1.2030383558993321 -1.2326645718669951 0.34624097357354527
decision_type=2 2 2 2 2 2 2 2 2 2 2 2 2 2 2 2 2 2 2 2 2 2 2 2 2 2 2
left_child=2 6 4 8 9 14 23 10 -3 11 17 12 22 16 15 19 18 21 -13 -4 -21 -6 25 -2 -14 -1 -19
right_child=1 3 5 -5 7 -7 -8 -9 -10 -11 -12 13 24 -15 -16 -17 -18 26 -20 20 -22 -23 -24 -25 -26 -27 -28
leaf_value=-201.85933593750002 71.727260894775398 414.16282784598218 -56.38097154476025 686.55390200407612 -29.419148851477583 115.95384979248047 231.88466655186244 -173.53435422352382 546.36778225368926 -223.13496513366701 -6.5194454070060495 -134.11452087402344 -83.266251220703126 -64.515848482572125 -61.275028767305265 69.066519584655765 -113.92352744654607 -128.48170147520122 -208.9873087565104 55.543255783081058 -38.956308981951544 -90.70377176920573 -168.83689056396486 135.87151161193847 -142.6522058557581 -248.04976140802557 -95.997681211388624
leaf_weight=20 20 21 27 23 23 20 28 28 36 32 31 20 20 39 34 20 38 33 30 25 34 30 20 20 27 22 23
leaf_count=20 20 21 27 23 23 20 28 28 36 32 31 20 20 39 34 20 38 33 30 25 34 30 20 20 27 22 23
internal_value=-1.70843 370.285 -94.0826 551.967 -128.973 0.992732 156.54 -88.7301 497.661 -154.199 -71.7693 -144.852 -168.697 -124.387 -15.4303 -0.725367 -150.92 -90.3266 -179.038 -16.956 1.08588 -64.1086 -207.597 103.799 -117.382 -226.054 -115.14
internal_weight=744 148 596 80 436 160 68 168 57 268 140 236 109 127 140 106 88 109 50 86 59 53 62 40 47 42 56
internal_count=744 148 596 80 436 160 68 168 57 268 140 236 109 127 140 106 88 109 50 86 59 53 62 40 47 42 56
is_linear=0
shrinkage=0.05


Tree=20
num_leaves=27
num_cat=0
split_feature=4 0 4 4 1 0 2 2 1 10 5 2 5 0 5 5 1 1 5 5 0 7 7 5 5 1
split_gain=9.35146e+09 8.5456e+08 4.81693e+08 4.16568e+08 3.97137e+08 2.23797e+08 1.72699e+08 1.50507e+08 1.47941e+08 9.55714e+07 8.251e+07 6.66066e+07 6.63812e+07 6.68444e+07 5.10736e+07 5.09006e+07 4.71615e+07 9.03245e+07 3.78002e+07 8.74309e+07 3.32631e+07 2.35135e+07 2.33652e+07 1.88947e+07 8.42693e+06 5.95293e+06
threshold=1.7426076348466026 0.16106475809344603 0.91664213311579668 1.2693282161908945 -0.024077295816309779 1.3661126893221227 1.0000000180025095e-35 -0.48331718992005629 1.1005013952301812 1.0000000180025095e-35 -1.1262460805172834 1.1981770336157676 -0.97528782225824495 -0.47690179373350033 -1.2865410826165997 -0.095427810883075184 0.5396324847190842 -0.60564397364728073 0.16755239633766619 -0.16820981660141671 0.86991648234560881 1.0000000180025095e-35 1.0000000180025095e-35 -0.67716198578507691 0.88384385213293515 0.13379390981959241
decision_type=2 2 2 2 2 2 2 2 2 2 2 2 2 2 2 2 2 2 2 2 2 2 2 2 2 2
left_child=1 2 6 5 -2 11 10 25 15 16 14 18 -12 23 -1 -6 17 -8 19 -3 22 -15 -20 -14 -22 -7
right_child=4 3 -4 -5 8 7 9 -9 -10 -11 12 -13 13 21 -16 -17 -18 -19 20 -21 24 -23 -24 -25 -26 -27
leaf_value=-170.16691741943362 274.26868111746654 -92.513917740531596 60.76444397533642 204.38979422829368 416.90500710227275 25.230204076766967 -175.50116401672364 166.92443626577204 629.37922363281257 -9.6315653483072925 -76.342977701822917 18.162532013484409 -217.43885125054254 -146.03973493303573 -261.35656040736609 517.76203023976302 -174.71356095023779 -43.61644748997044 -69.013367638221155 39.052342333112449 -24.477853938511441 -81.783573150634766 -127.16890534431705 -165.06000902580493 -60.62765063235635 -12.460463029688055
leaf_weight=34 21 23 34 22 22 20 20 22 22 30 30 35 36 35 28 29 23 37 39 28 28 24 31 33 38 22
leaf_count=34 21 23 34 22 22 20 20 22 22 30 30 35 36 35 28 29 23 37 39 28 28 24 31 33 38 22
internal_value=-1.22375 -66.5631 -118.429 -5.2671 465.883 -21.3946 -136.891 60.9814 521.005 -85.7381 -162.468 -45.1426 -143.286 -158.976 -211.349 474.255 -114.278 -89.8918 -56.9911 -20.2815 -70.7573 -119.902 -94.768 -192.388 -45.2914 5.48747
internal_weight=766 672 364 308 94 286 330 64 73 110 220 222 158 128 62 51 80 57 187 51 136 59 70 69 66 42
internal_count=766 672 364 308 94 286 330 64 73 110 220 222 158 128 62 51 80 57 187 51 136 59 70 69 66 42
is_linear=0
shrinkage=0.05


Tree=21
num_leaves=28
num_cat=0
split_feature=4 4 0 1 0 2 2 1 10 0 5 5 0 5 2 5 1 1 5 1 20 10 0 5 5 1 1
split_gain=8.43969e+09 7.7348e+08 7.80645e+08 3.58416e+08 1.76959e+08 1.56518e+08 1.35833e+08 1.33517e+08 8.11383e+07 7.63102e+07 6.84207e+07 5.66942e+07 6.50526e+07 5.53485e+07 5.01062e+07 4.59378e+07 4.49927e+07 9.38121e+07 4.11409e+07 6.19786e+07 3.06124e+07 2.71086e+07 5.92115e+07 2.08558e+07 1.70524e+07 9.40292e+06 5.37252e+06
threshold=1.7426076348466026 1.2133808162412014 0.23194993051866231 -0.024077295816309779 1.3661126893221227 1.0000000180025095e-35 -0.48331718992005629 1.1005013952301812 1.0000000180025095e-35 0.16106475809344603 -1.1262460805172834 -0.97528782225824495 -0.47690179373350033 -1.2865410826165997 1.1981770336157676 -0.095427810883075184 0.53110987464619452 -0.63161764244084817 0.16755239633766619 -1.1157830622959413 1.0000000180025095e-35 1.0000000180025095e-35 0.940801654770825 -0.17990921208420355 -0.67716198578507691 0.77136631098669339 0.13379390981959241
decision_type=2 2 2 2 2 2 2 2 2 2 2 2 2 2 2 2 2 2 2 2 2 2 2 2 2 2 2
left_child=1 2 5 -2 14 10 26 15 16 -3 13 -12 24 -1 18 -5 17 -7 19 -4 21 22 25 -14 -13 -20 -6
right_child=3 9 4 7 6 8 -8 -9 -10 -11 11 12 23 -15 -16 -17 -18 -19 20 -21 -22 -23 -24 -25 -26 -27 -28
leaf_value=-154.55784692499375 260.55524844215029 70.679133356028601 -71.748137817382812 396.05975785688923 23.968692623972895 -166.49526225498744 158.57821044921877 597.91026389382102 -12.887769508361817 194.17030646584251 -72.525826009114596 -206.56690809461807 -86.272918611414298 -248.28873421805247 17.254405512128557 491.87393335802801 -159.60955720124423 -34.813976729543583 -77.300875577059671 47.430046081542969 -109.00249960763115 0.63611966087704619 -12.492883855646307 -140.87908172607422 -156.80700646602747 -123.02363082222317 -11.837440085411073
leaf_weight=36 21 29 20 22 20 21 22 22 32 22 30 36 34 28 35 29 27 38 22 24 28 21 33 36 33 23 22
leaf_count=36 21 29 20 22 20 21 22 22 32 22 30 36 34 28 35 29 27 38 22 24 28 21 33 36 33 23 22
internal_value=-1.16257 -63.2349 -78.6076 442.589 -14.6897 -127.775 57.9324 494.955 -80.8576 123.95 -151.536 -134.862 -148.316 -195.565 -37.2518 450.542 -106.149 -81.6836 -48.4081 -6.74186 -62.8436 -49.7886 -63.3645 -114.356 -182.769 -100.67 5.2131
internal_weight=766 672 621 94 270 351 64 73 118 51 233 169 139 64 206 51 86 59 171 44 127 99 78 70 69 45 42
internal_count=766 672 621 94 270 351 64 73 118 51 233 169 139 64 206 51 86 59 171 44 127 99 78 70 69 45 42
is_linear=0
shrinkage=0.05


Tree=22
num_leaves=27
num_cat=0
split_feature=4 4 0 4 0 2 2 4 10 0 0 0 2 0 2 10 6 18 0 0 10 0 0 6 0 0
split_gain=7.61682e+09 6.98065e+08 7.04532e+08 3.2347e+08 1.59706e+08 1.41258e+08 1.22589e+08 1.08699e+08 7.32273e+07 6.88699e+07 4.99335e+07 4.96207e+07 4.52209e+07 3.50511e+07 3.69344e+07 2.96567e+07 3.15439e+07 2.63951e+07 2.62623e+07 3.28713e+07 2.34626e+07 2.54227e+07 2.7666e+07 1.67097e+07 1.33438e+07 7.15488e+06
threshold=1.7426076348466026 1.2133808162412014 0.23194993051866231 1.9345685018118044 1.3661126893221227 1.0000000180025095e-35 -0.48331718992005629 2.4894955394753691 1.0000000180025095e-35 0.16106475809344603 -0.47690179373350033 0.44460544779431116 1.1981770336157676 -0.051590759182202767 1.1981770336157676 1.0000000180025095e-35 1.0000000180025095e-35 1.0000000180025095e-35 -1.3984090352613114 -1.1148683455604464 1.0000000180025095e-35 0.940801654770825 0.51549062021952741 1.0000000180025095e-35 -0.051590759182202767 -0.83132765585958157
decision_type=2 2 2 2 2 2 2 2 2 2 2 2 2 2 2 2 2 2 2 2 2 2 2 2 2 2
left_child=1 2 5 -2 12 10 -6 11 13 -3 15 -5 17 14 -7 18 -17 20 -1 -20 21 22 -4 -12 -25 -21
right_child=3 9 4 7 6 8 -8 -9 -10 -11 23 -13 -14 -15 -16 16 -18 -19 19 25 -22 -23 -24 24 -26 -27
leaf_value=-204.57080169677735 247.52748493012928 67.145177459716805 -54.300941916073072 392.8203002929688 4.9524440384869068 -84.771339326746329 150.64930113879117 566.21620047433032 -12.243380069732666 184.46178869767624 -79.591448237978184 493.21551513671875 16.391684998103553 -48.011602495027631 -161.58130114325161 -166.13029964447023 -77.327241621017464 -0.62138649269386581 -117.47676678825829 -199.43212890625 -21.377723067846055 -34.78851807423127 -119.0749743461609 -157.02070486886163 -99.954656982421881 -161.1480144998302
leaf_weight=40 21 29 34 32 42 34 22 21 32 22 29 20 35 23 29 20 20 27 34 26 39 39 32 21 20 23
leaf_count=40 21 29 34 32 42 34 22 21 32 22 29 20 35 23 29 20 20 27 34 26 39 39 32 21 20 23
internal_value=-1.10444 -60.0732 -74.6772 420.459 -13.9552 -121.386 55.0357 470.207 -76.8147 117.752 -143.959 431.434 -35.3892 -100.841 -120.128 -159.128 -121.729 -45.9877 -171.29 -155.251 -54.4939 -66.7941 -85.7065 -108.638 -129.184 -181.462
internal_weight=766 672 621 94 270 351 64 73 118 51 233 52 206 86 63 163 40 171 123 83 144 105 66 70 41 49
internal_count=766 672 621 94 270 351 64 73 118 51 233 52 206 86 63 163 40 171 123 83 144 105 66 70 41 49
is_linear=0
shrinkage=0.05


Tree=23
num_leaves=28
num_cat=0
split_feature=4 4 0 4 0 2 2 5 5 16 0 5 5 5 0 0 2 5 5 20 10 0 5 5 5 5 5
split_gain=6.87418e+09 6.30121e+08 6.31834e+08 2.91932e+08 1.44134e+08 1.24998e+08 1.10637e+08 1.02017e+08 6.64141e+07 6.01524e+07 5.95124e+07 5.35713e+07 5.54788e+07 5.29279e+07 5.437e+07 5.0649e+07 4.08118e+07 3.51593e+07 3.32486e+07 2.80236e+07 2.27718e+07 4.97902e+07 2.11657e+07 1.91932e+07 1.54956e+07 6.99456e+06 4.51605e+06
threshold=1.7426076348466026 1.2264286197630379 0.23194993051866231 1.9345685018118044 1.3661126893221227 1.0000000180025095e-35 -0.48331718992005629 -0.36797723168401958 -0.81646829136539556 1.0000000180025095e-35 0.16106475809344603 -1.1262460805172834 -1.2865410826165997 -0.97528782225824495 -0.47690179373350033 -0.40601662130828403 1.1981770336157676 0.16755239633766619 -0.049844764736029647 1.0000000180025095e-35 1.0000000180025095e-35 0.940801654770825 1.0000000180025095e-35 -0.17990921208420355 -0.67716198578507691 0.75608512506239067 1.5242363099826965
decision_type=2 2 2 2 2 2 2 2 2 2 2 2 2 2 2 2 2 2 2 2 2 2 2 2 2 2 2
left_child=1 2 5 -2 16 11 26 -5 -7 -9 -3 12 -1 -13 24 -10 17 18 -4 20 21 25 -17 -16 -15 -19 -6
right_child=3 10 4 7 6 8 -8 9 15 -11 -12 13 -14 14 23 22 -18 19 -20 -21 -22 -23 -24 -25 -26 -27 -28
leaf_value=-134.48236225231275 235.15110870770047 65.346120194026398 -44.847048314412433 350.47596435546876 20.337312529303812 -19.58638391739283 143.11683658253062 527.87953786542346 -153.36150490897043 419.77545831853695 175.23870133486662 -61.023463541666672 -227.76701485770093 -188.43596225314673 -76.265785935345818 -97.720695890229322 15.572101422888892 -69.155053100585945 42.442531585693359 -101.19725292750768 1.6731953938802082 -10.335886764526368 -32.68364424272017 -128.65025549994576 -141.00183253432766 -108.82590405273439 -12.490916603803635
leaf_weight=37 21 28 24 20 22 39 22 31 28 22 22 30 28 36 34 29 35 20 20 28 21 33 22 36 33 25 20
leaf_count=37 21 28 24 20 22 39 22 31 28 22 22 30 28 36 34 29 35 20 20 28 21 33 22 36 33 25 20
internal_value=-1.04922 -57.0695 -70.7969 399.436 -13.2574 -114.932 52.284 446.697 -72.974 483.006 113.699 -136.091 -174.667 -121.254 -134.253 -99.3299 -33.6198 -43.6883 -5.16997 -57.0332 -44.5424 -56.985 -69.6655 -103.206 -165.75 -91.1944 4.70482
internal_weight=766 672 622 94 270 352 64 73 118 53 50 234 65 169 139 79 206 171 44 127 99 78 51 70 69 45 42
internal_count=766 672 622 94 270 352 64 73 118 53 50 234 65 169 139 79 206 171 44 127 99 78 51 70 69 45 42
is_linear=0
shrinkage=0.05


Tree=24
num_leaves=30
num_cat=0
split_feature=4 4 0 1 0 2 1 2 10 0 5 5 1 1 2 5 5 1 1 1 0 20 5 5 2 1 1 0 1
split_gain=6.20395e+09 5.69653e+08 5.74107e+08 2.63468e+08 1.30081e+08 1.15181e+08 1.0843e+08 9.98497e+07 6.50477e+07 5.58128e+07 5.40629e+07 6.99614e+07 3.98247e+07 8.77758e+07 3.68327e+07 3.42108e+07 3.17312e+07 5.47827e+07 2.70454e+07 5.48268e+07 5.51122e+07 2.52913e+07 2.20095e+07 2.81726e+07 2.09572e+07 4.98609e+07 1.6708e+07 1.2352e+07 4.43263e+06
threshold=1.7426076348466026 1.2133808162412014 0.23194993051866231 -0.024077295816309779 1.3661126893221227 1.0000000180025095e-35 1.1005013952301812 -0.48331718992005629 1.0000000180025095e-35 0.16106475809344603 -1.0245666628420669 -0.88009858017931875 0.53110987464619452 -0.63161764244084817 1.1981770336157676 -0.095427810883075184 0.16755239633766619 -1.1157830622959413 0.48971434000644648 0.10944359532562285 -0.19336110403263526 1.0000000180025095e-35 -1.2865410826165997 -1.1262460805172834 -0.48331718992005629 0.48971434000644648 0.71820145767485999 -0.61867213858393277 0.13379390981959241
decision_type=2 2 2 2 2 2 2 2 2 2 2 2 2 2 2 2 2 2 2 2 2 2 2 2 2 2 2 2 2
left_child=1 2 5 -2 14 10 15 28 12 -3 22 -12 13 -7 16 -5 17 -4 19 20 -13 24 -1 -24 25 -18 -26 -20 -6
right_child=3 9 4 6 7 8 -8 -9 -10 -11 11 18 -14 -15 -16 -17 21 -19 27 -21 -22 -23 23 -25 26 -27 -28 -29 -30
leaf_value=-132.05381605360245 223.39355446951731 60.865142715902167 -66.027622985839841 337.32169633345171 21.505767908096317 -150.99070489065988 517.14235063032675 135.96099343733354 -8.4670812606811534 166.47676755731757 -33.563956705729169 -170.34316888106497 -142.2670918782552 -23.61636657714844 14.793495080130441 420.00668271821127 34.359686776866084 46.018664805094403 -183.86621359120247 -37.973038635253907 -72.28060388979705 -96.137390790666856 -216.37866254534043 -139.76737002418153 -87.271953410487029 -70.928877882523963 -31.026862501061483 -130.13910034179688 -11.017862961509012
leaf_weight=36 21 29 20 22 20 21 22 22 32 22 24 38 27 38 35 29 23 24 23 20 23 28 28 21 31 22 23 20 22
leaf_count=36 21 29 20 22 20 21 22 22 32 22 24 38 27 38 35 29 23 24 23 20 23 28 28 21 31 22 23 20 22
internal_value=-0.996756 -54.216 -67.4086 379.465 -12.5945 -109.573 424.362 49.6698 -69.3253 106.423 -129.956 -111.704 -91.9702 -68.953 -31.9388 384.339 -41.5039 -4.91147 -126.828 -109.814 -133.369 -54.1816 -161.737 -183.545 -42.3153 -17.1147 -63.3157 -158.877 4.46958
internal_weight=766 672 621 94 270 351 73 64 118 51 233 148 86 59 206 51 171 44 124 81 61 127 85 49 99 45 54 43 42
internal_count=766 672 621 94 270 351 73 64 118 51 233 148 86 59 206 51 171 44 124 81 61 127 85 49 99 45 54 43 42
is_linear=0
shrinkage=0.05


Tree=25
num_leaves=29
num_cat=0
split_feature=4 3 5 5 14 5 5 1 13 1 1 1 1 1 1 1 3 1 5 13 5 5 1 1 6 3 6 6
split_gain=5.89207e+09 9.39871e+08 5.87956e+08 2.04496e+08 1.05659e+08 8.77886e+07 8.58092e+07 1.94375e+08 9.35167e+07 6.76515e+07 5.46341e+07 5.51495e+07 4.43981e+07 6.38475e+07 9.14266e+07 9.22347e+07 4.16431e+07 2.67305e+07 7.96972e+07 1.75063e+07 1.74901e+07 1.69494e+07 3.5963e+07 3.09357e+07 2.40374e+07 8.56616e+06 6.33688e+06 3.39267e+06
threshold=1.8734810580504788 1.0000000180025095e-35 0.13686639066748615 -0.45198894912489002 1.0000000180025095e-35 -0.24750571931808193 1.5372925696617836 1.1175466153759592 1.0000000180025095e-35 0.97834398418543389 -1.0325861544415453 -1.3832306831547061 0.50026614295383298 0.16707267296135073 -0.18884775722550334 -0.72658386896732929 2.1155844851234678 -0.20467546164658326 -0.49074972004717993 1.0000000180025095e-35 -0.54111025656371714 -1.3025293075869933 0.29125927688059522 0.69709785178008665 1.0000000180025095e-35 1.2832004423736161 1.0000000180025095e-35 1.0000000180025095e-35
decision_type=2 2 2 2 2 2 2 2 2 2 2 2 2 2 2 2 2 2 2 2 2 2 2 2 2 2 2 2
left_child=1 2 4 -2 10 25 8 -8 9 12 11 -1 13 14 15 -4 -5 19 -19 20 -12 -6 24 -24 -23 -3 -20 -10
right_child=3 5 6 16 21 -7 7 -9 27 -11 17 -13 -14 -15 -16 -17 -18 18 26 -21 -22 22 23 -25 -26 -27 -28 -29
leaf_value=-97.621038614908855 287.98186459748644 53.970414573669444 56.293630657196047 413.05827525745735 -116.84337615966797 183.90368904908499 144.51820532226563 -45.728914612326129 -105.60252619204314 -86.139594833374019 -181.14919128417969 -0.051330239432198665 66.678216353706702 -66.770015043370861 85.699216013941282 -83.27928961392108 502.42007827758789 -4.3496041434151786 -104.5402409306279 -90.310957845052087 -121.89328372839725 -220.91319489655672 -80.729338989257826 -161.56148555360994 -152.14130249023438 97.872409343719482 -140.69060585715553 -78.13801718625156
leaf_weight=30 23 25 20 22 31 30 25 29 23 25 20 28 23 34 29 29 32 21 27 21 33 27 20 29 24 20 22 22
leaf_count=30 23 25 20 22 31 30 25 29 23 25 20 28 23 34 29 29 32 21 27 21 33 27 20 29 24 20 22 22
internal_value=-1.2933 -49.1012 -70.2269 412.835 -114.172 117.651 -13.7263 42.3485 -28.4971 -10.5876 -91.491 -50.5184 3.40347 -9.59045 15.334 -26.3108 466.013 -107.994 -85.8446 -128.946 -144.254 -149.146 -159.159 -128.569 -188.55 73.4824 -120.771 -92.1754
internal_weight=744 667 592 77 333 75 259 54 205 160 202 58 135 112 78 49 54 144 70 74 53 131 100 49 51 45 49 45
internal_count=744 667 592 77 333 75 259 54 205 160 202 58 135 112 78 49 54 144 70 74 53 131 100 49 51 45 49 45
is_linear=0
shrinkage=0.05


Tree=26
num_leaves=29
num_cat=0
split_feature=4 3 5 5 5 18 5 5 2 13 5 5 6 3 5 13 2 16 6 5 6 5 5 5 5 3 5 5
split_gain=5.31759e+09 8.48234e+08 5.3063e+08 1.84558e+08 9.80103e+07 1.18923e+08 7.92292e+07 7.77496e+07 1.40517e+08 7.66303e+07 4.92301e+07 4.00674e+07 5.11254e+07 3.75829e+07 2.8829e+07 3.03973e+07 2.78841e+07 2.09801e+07 1.22706e+07 1.21127e+07 3.67698e+07 3.2675e+07 1.22572e+07 2.43811e+07 9.18069e+06 7.73095e+06 5.25179e+06 2.59183e+06
threshold=1.8734810580504788 1.0000000180025095e-35 0.13686639066748615 -0.45198894912489002 -1.0245666628420669 1.0000000180025095e-35 -0.24750571931808193 1.3802284225193933 -0.48331718992005629 1.0000000180025095e-35 0.26366677309588821 0.56373776453578073 1.0000000180025095e-35 2.1155844851234678 -1.3025293075869933 1.0000000180025095e-35 1.1981770336157676 1.0000000180025095e-35 1.0000000180025095e-35 -0.68482399864180876 1.0000000180025095e-35 -0.50797620220370809 -0.27034468519567129 -0.088989822371257785 -0.58670279127157599 1.2832004423736161 0.89862702988004095 0.60654066236453186
decision_type=2 2 2 2 2 2 2 2 2 2 2 2 2 2 2 2 2 2 2 2 2 2 2 2 2 2 2 2
left_child=1 2 4 -2 14 16 25 9 -9 10 -4 17 26 -5 -1 18 19 -12 -16 20 -6 -21 -23 -24 -7 -3 -13 -11
right_child=3 6 7 13 5 24 -8 8 -10 27 11 12 -14 -15 15 -17 -18 -19 -20 21 -22 22 23 -25 -26 -27 -28 -29
leaf_value=-111.00120854531565 273.58276844853941 51.271894210815439 60.509449310302742 392.40536055131395 -174.62520920325971 5.0439846801757815 174.70850592931114 -29.66471324611355 118.79585652351381 -102.48368194580078 -25.139923477172854 -19.661883961070671 39.987789515445115 477.29907455444339 -217.65410421620246 -117.99455139160158 -60.941009521484375 -92.088571777343759 -166.00614862856659 -58.089283635066103 -93.542353877314824 -149.28121228899275 -71.268450673421228 -139.94583544049945 -39.310173252650671 92.978785743713388 -52.854866849459135 -77.333531011853907
leaf_weight=31 23 25 20 22 29 20 30 37 28 20 22 22 38 32 23 20 26 25 23 26 27 28 24 28 28 20 26 21
leaf_count=31 23 25 20 22 29 20 30 37 28 20 22 22 38 32 23 20 26 25 23 26 27 28 24 28 28 20 26 21
internal_value=-1.22864 -46.6462 -66.7156 392.193 -108.463 -91.0727 111.768 -13.0399 34.2875 -28.8971 -12.6298 -23.6282 -3.34014 442.713 -150.774 -169.456 -109.007 -60.7509 -191.83 -116.722 -135.532 -106.784 -122.61 -108.249 -20.8293 69.8083 -37.6414 -89.6019
internal_weight=744 667 592 77 333 236 75 259 65 194 153 133 86 54 97 66 188 47 46 162 56 106 80 52 48 45 48 41
internal_count=744 667 592 77 333 236 75 259 65 194 153 133 86 54 97 66 188 47 46 162 56 106 80 52 48 45 48 41
is_linear=0
shrinkage=0.05


Tree=27
num_leaves=29
num_cat=0
split_feature=3 19 0 5 0 6 5 0 5 10 2 20 5 11 0 5 12 2 5 0 5 12 0 2 2 11 6 5
split_gain=4.48609e+09 1.07857e+09 4.82143e+08 1.66563e+08 1.23638e+08 7.19102e+07 9.94403e+07 7.45027e+07 7.16322e+07 5.45117e+07 4.96347e+07 4.863e+07 9.8222e+07 3.66656e+07 3.39185e+07 2.95914e+07 4.53396e+07 2.41272e+07 2.1867e+07 1.79238e+07 1.86751e+07 1.54483e+07 3.13443e+07 2.65295e+07 2.29508e+07 1.50001e+07 1.26464e+07 3.50684e+06
threshold=1.0000000180025095e-35 1.0000000180025095e-35 0.51549062021952741 -0.45198894912489002 -1.1857535179856626 1.0000000180025095e-35 0.75608512506239067 1.3661126893221227 -0.063750250607906234 1.0000000180025095e-35 1.0000000180025095e-35 1.0000000180025095e-35 0.97485812745401368 1.0000000180025095e-35 0.30283510294387855 0.20412130971208617 1.0000000180025095e-35 -0.48331718992005629 1.6231593007416527 -1.3984090352613114 -1.2486959578127921 1.0000000180025095e-35 -0.68955731100914897 -0.48331718992005629 1.0000000180025095e-35 1.0000000180025095e-35 1.0000000180025095e-35 1.0265992495688845
decision_type=2 2 2 2 2 2 2 2 2 2 2 2 2 2 2 2 2 2 2 2 2 2 2 2 2 2 2 2
left_child=2 8 4 -3 13 6 -4 11 17 15 -11 12 -7 19 -5 21 -17 -2 27 20 -1 23 -23 25 -25 -6 -26 -8
right_child=1 3 5 14 9 7 18 -9 -10 10 -12 -13 -14 -15 -16 16 -18 -19 -20 -21 -22 22 -24 24 26 -27 -28 -29
leaf_value=-177.5203290856403 34.652001363580879 259.90363238790763 -97.077200277228116 372.78508800159807 -90.200049358865499 83.925938698553281 41.363839340209964 92.5702586110433 182.0237422509627 -78.383456902754943 9.3497205461774566 -65.190158008393794 -47.852473405691299 -93.336757494055718 453.43412017822266 -106.71008682250977 -9.5208379109700516 103.11710842501732 -33.617390600840253 -200.03308154296874 -111.45750793457033 -170.59085637872872 -93.997235690846168 -146.34150499616351 -117.53078119187128 -32.450644753196023 -64.898452667236327 12.43531442122026
leaf_weight=23 22 23 38 22 23 31 20 30 22 38 28 21 26 23 32 24 24 31 24 25 20 22 34 28 21 22 25 22
leaf_count=23 22 23 38 22 23 31 20 30 22 38 28 21 26 23 32 24 24 31 24 25 20 22 34 28 21 22 25 22
internal_value=-1.16721 241.135 -63.3798 372.584 -97.0832 -2.96813 -32.6432 25.6079 106.18 -81.0793 -41.1633 -0.14684 23.8165 -147.909 420.577 -92.893 -58.1155 74.6976 4.4551 -166.367 -146.793 -102.432 -124.088 -92.2411 -110.651 -61.967 -88.9263 26.2108
internal_weight=744 152 592 77 380 212 104 108 75 289 66 78 57 91 54 223 48 53 66 68 43 175 56 119 74 45 46 42
internal_count=744 152 592 77 380 212 104 108 75 289 66 78 57 91 54 223 48 53 66 68 43 175 56 119 74 45 46 42
is_linear=0
shrinkage=0.05


Tree=28
num_leaves=31
num_cat=0
split_feature=4 3 5 5 0 0 2 0 5 0 20 5 12 11 6 5 5 0 0 5 6 0 5 0 5 5 5 5 5 5
split_gain=4.33121e+09 6.90892e+08 4.37285e+08 1.50323e+08 9.00632e+07 7.69418e+07 1.18767e+08 6.58889e+07 5.0487e+07 5.51826e+07 4.16074e+07 3.95831e+07 3.67355e+07 3.30907e+07 3.21125e+07 2.92523e+07 1.1364e+08 2.87662e+07 2.11234e+07 1.98903e+07 1.97303e+07 1.95201e+07 1.63868e+07 1.61762e+07 1.68543e+07 1.43595e+07 1.12734e+07 9.69603e+06 7.63109e+06 3.35147e+06
threshold=1.8734810580504788 1.0000000180025095e-35 0.13686639066748615 -0.45198894912489002 -1.1857535179856626 1.3661126893221227 -0.48331718992005629 0.16106475809344603 0.25129368979535799 0.51549062021952741 1.0000000180025095e-35 1.0265992495688845 1.0000000180025095e-35 1.0000000180025095e-35 1.0000000180025095e-35 -0.89413690590258132 -0.74347279302875469 -0.68955731100914897 0.44460544779431116 -0.50797620220370809 1.0000000180025095e-35 -0.26424627645785148 0.82463523265800476 -1.3984090352613114 -1.2486959578127921 0.40768889340041148 1.5719305609106988 -1.0083364795709342 -0.22114649737876207 1.6004721518370759
decision_type=2 2 2 2 2 2 2 2 2 2 2 2 2 2 2 2 2 2 2 2 2 2 2 2 2 2 2 2 2 2
left_child=1 2 4 -2 13 8 29 27 -4 25 11 22 15 23 -5 20 -17 -14 19 -18 -6 -21 -11 24 -1 -10 -13 -3 -23 -7
right_child=3 7 5 14 12 6 -8 -9 9 10 -12 26 17 -15 -16 16 18 -19 -20 21 -22 28 -24 -25 -26 -27 -28 -29 -30 -31
leaf_value=-168.64431417713996 246.90845151154892 83.961846227231234 44.801372458718042 363.74841350686961 -142.14702322823663 1.5356449127197267 133.90253938947407 156.70397006619362 -43.266924133300783 4.8923018137613932 -70.096480219704773 -54.447319797369154 -162.06131369850854 -88.669920282778548 441.07606347656247 41.33249246348506 -58.920583565094887 -89.098175964355477 -34.566528392973403 -144.39734885475852 -74.390604469992908 -63.905669097900386 65.371794891357425 -190.03143115234377 -105.88462951660156 -96.376469552176346 -5.8156543384898791 36.970306251162576 -106.57948663884943 -27.410288505554202
leaf_weight=23 23 23 22 29 21 20 21 31 20 24 28 26 22 23 25 23 34 35 21 22 22 20 21 25 20 35 22 21 22 20
leaf_count=23 23 23 22 29 21 20 21 31 20 24 28 26 22 23 25 23 34 35 21 22 22 20 21 25 20 35 22 21 22 20
internal_value=-1.10884 -42.0982 -60.2108 353.955 -98.1091 -11.4845 37.6141 100.871 -26.6108 -35.5373 -16.6616 -0.573675 -82.1637 -140.513 399.548 -71.3505 -60.4095 -117.259 -80.074 -89.8255 -107.481 -106.244 33.1161 -158.048 -139.454 -77.0639 -32.1578 61.5341 -86.2586 -12.9373
internal_weight=744 667 592 77 333 259 61 75 198 176 121 93 242 91 54 185 142 57 119 98 43 64 45 68 43 55 48 44 42 40
internal_count=744 667 592 77 333 259 61 75 198 176 121 93 242 91 54 185 142 57 119 98 43 64 45 68 43 55 48 44 42 40
is_linear=0
shrinkage=0.05


Tree=29
num_leaves=28
num_cat=0
split_feature=3 1 0 0 0 6 12 1 0 1 10 1 1 1 1 0 1 1 0 0 1 1 0 0 12 0 1
split_gain=3.65395e+09 8.78504e+08 3.90847e+08 1.28527e+08 1.01021e+08 6.49343e+07 6.7514e+07 6.72241e+07 5.94647e+07 5.11571e+07 4.72081e+07 8.93577e+07 3.41142e+07 3.26402e+07 3.98723e+07 3.25819e+07 2.92655e+07 2.52677e+07 4.40583e+07 3.33931e+07 1.89101e+07 1.84254e+07 1.70648e+07 2.43296e+07 4.76897e+06 4.49277e+06 61427.3
threshold=1.0000000180025095e-35 -0.14136464396226278 0.51549062021952741 -0.61867213858393277 -1.1857535179856626 1.0000000180025095e-35 1.0000000180025095e-35 0.93654261097078673 0.16106475809344603 0.39880649922896005 1.0000000180025095e-35 -0.20467546164658326 0.75229189796641738 -0.60564397364728073 0.36552773608720207 0.940801654770825 -0.14136464396226278 -1.1774705256806637 -0.19336110403263526 1.0000000180025095e-35 -0.65556211835991807 -0.67910075570408879 -0.90221282828479776 -0.61867213858393277 1.0000000180025095e-35 -0.83132765585958157 0.051814517689895
decision_type=2 2 2 2 2 2 2 2 2 2 2 2 2 2 2 2 2 2 2 2 2 2 2 2 2 2 2
left_child=2 8 4 -3 13 7 9 15 25 21 17 -12 -5 -1 -15 -4 -17 -6 20 -20 -19 -7 -22 -24 26 -2 -21
right_child=1 3 5 12 10 6 -8 -9 -10 -11 11 -13 -14 14 -16 16 -18 18 19 24 22 -23 23 -25 -26 -27 -28
leaf_value=-182.1425732421875 41.736646997360964 253.14855578192351 -99.510041300455725 346.03741064453129 -31.873461768740697 16.039396077936345 100.3442248137101 35.22113947187151 148.86877208986593 65.622903442382821 -84.340941913311312 33.988791006582758 430.41441225798235 -77.355268680348118 -155.11646728515626 -70.54338188171387 6.7550038146972655 -154.83201354980471 -14.65192530822754 -91.101053147088919 -132.65879537648169 -41.187492112624341 -48.177928710937501 -112.3846928914388 -65.615575702373803 73.724103778341544 -94.972899017333987
leaf_weight=25 21 29 27 25 21 22 23 28 31 24 39 27 23 34 32 24 25 20 25 21 29 39 25 36 26 23 20
leaf_count=25 21 29 27 25 21 22 23 28 31 24 39 27 23 34 32 24 25 20 25 21 29 39 25 36 26 23 20
internal_value=-1.0534 217.624 -57.2003 336.257 -87.5454 -2.80813 24.3465 -31.0072 95.8274 3.7824 -73.0791 -35.9333 386.468 -133.488 -115.058 -55.4071 -31.1054 -84.073 -89.4996 -63.9661 -110.855 -20.5483 -101.082 -86.0704 -82.3669 58.4574 -92.9898
internal_weight=744 152 592 77 380 212 108 104 75 85 289 66 48 91 66 76 49 223 202 92 110 61 90 61 67 44 41
internal_count=744 152 592 77 380 212 108 104 75 85 289 66 48 91 66 76 49 223 202 92 110 61 90 61 67 44 41
is_linear=0
shrinkage=0.05


Tree=30
num_leaves=29
num_cat=0
split_feature=4 4 5 3 10 1 5 2 17 1 5 5 5 13 20 5 7 5 1 5 1 3 12 5 12 1 1 1
split_gain=3.47193e+09 4.27555e+08 3.05523e+08 1.44694e+08 7.43766e+07 7.19602e+07 6.59681e+07 1.54057e+08 6.16371e+07 5.19671e+07 6.58152e+07 4.79004e+07 8.74803e+07 5.35442e+07 9.50235e+07 6.65011e+07 5.11792e+07 4.69541e+07 4.43071e+07 3.63969e+07 3.622e+07 3.00553e+07 2.51049e+07 1.59653e+07 1.4705e+07 7.95929e+06 5.64472e+06 1.94295e+06
threshold=1.8734810580504788 1.2264286197630379 0.14654946697744883 2.1155844851234678 1.0000000180025095e-35 0.94750025249307279 0.95053894608955125 -0.48331718992005629 1.0000000180025095e-35 0.36552773608720207 -1.3751262863694758 -1.2486959578127921 -1.1400851464634669 1.0000000180025095e-35 1.0000000180025095e-35 -0.87051513375789569 1.0000000180025095e-35 -0.30070807979819936 -0.544768187412357 -0.68482399864180876 0.60213162525360542 1.9372164759627852 1.0000000180025095e-35 1.5003536024156452 1.0000000180025095e-35 0.032740104669619248 0.71820145767485999 0.13379390981959241
decision_type=2 2 2 2 2 2 2 2 2 2 2 2 2 2 2 2 2 2 2 2 2 2 2 2 2 2 2 2
left_child=1 2 9 20 5 6 18 -8 -6 10 -1 -12 -13 14 15 -14 -17 -15 -4 -16 -2 -3 25 -7 26 -20 -11 -10
right_child=3 21 4 -5 8 23 7 -9 27 24 11 12 13 17 19 16 -18 -19 22 -21 -22 -23 -24 -25 -26 -27 -28 -29
leaf_value=-145.14384994506835 211.52795349121095 59.208698348999022 38.297026661464145 398.3140897042411 107.05018421519888 -99.190117553710934 -46.943607444763188 149.30668926239014 15.550974607467651 -118.44977562313989 10.74593476795015 -165.32509068080358 39.450482032412573 -52.416311645507818 -161.35977129255025 -13.460499064127603 -106.93340530395508 45.848090362548831 -42.214588911637016 -85.801973827465162 306.68569946289062 129.42057784751611 0.26540929620916193 -46.555112216051889 -90.001294163295199 -82.240971812495488 -155.11010509672622 -5.7576998171599021
leaf_weight=26 20 35 21 35 22 25 20 20 20 21 21 21 21 31 28 27 32 20 23 37 20 27 22 34 28 27 21 23
leaf_count=26 20 35 21 35 22 25 20 20 20 21 21 21 21 31 28 27 32 20 23 37 20 27 22 34 28 27 21 23
internal_value=1.87728 -35.128 -48.2323 324.07 -7.24916 -22.8996 -2.51206 51.1815 38.9799 -79.7672 -69.6115 -61.3601 -68.3381 -57.9466 -73.4454 -36.9605 -64.1577 -13.8813 -25.6061 -118.35 259.107 89.7848 -44.2445 -68.8581 -118.068 -63.8288 -136.78 4.15331
internal_weight=728 653 591 75 257 192 133 40 65 334 264 238 217 196 145 80 59 51 93 65 40 62 72 59 70 50 42 43
internal_count=728 653 591 75 257 192 133 40 65 334 264 238 217 196 145 80 59 51 93 65 40 62 72 59 70 50 42 43
is_linear=0
shrinkage=0.05


Tree=31
num_leaves=27
num_cat=0
split_feature=4 4 0 0 0 2 2 10 0 10 1 1 1 6 16 0 0 1 1 1 1 6 6 2 1 1
split_gain=3.13342e+09 3.85868e+08 2.36907e+08 1.30586e+08 9.6427e+07 7.32357e+07 5.33833e+07 7.48116e+07 5.02057e+07 3.9521e+07 9.556e+07 5.13503e+07 3.26885e+07 2.79276e+07 3.17335e+07 2.71249e+07 2.36552e+07 2.60846e+07 3.50536e+07 2.33894e+07 2.08828e+07 2.03913e+07 1.74671e+07 1.01508e+07 5.61265e+06 3.96316e+06
threshold=1.8734810580504788 1.2264286197630379 -0.47690179373350033 0.30283510294387855 1.0116868271960413 -0.48331718992005629 -0.48331718992005629 1.0000000180025095e-35 -1.2566386904108791 1.0000000180025095e-35 -0.57642359625451733 -1.0983320035752631 0.60213162525360542 1.0000000180025095e-35 1.0000000180025095e-35 0.16106475809344603 -1.0439831731352303 0.38866053485647273 -0.53665141591436705 0.092804213754743833 0.50026614295383298 1.0000000180025095e-35 1.0000000180025095e-35 1.0000000180025095e-35 0.42031594369863318 -0.15759818695824238
decision_type=2 2 2 2 2 2 2 2 2 2 2 2 2 2 2 2 2 2 2 2 2 2 2 2 2 2
left_child=1 2 6 12 9 22 16 8 -8 11 -11 -4 -2 14 -13 -3 17 18 -1 -7 -16 -10 24 25 -6 -15
right_child=3 15 4 -5 5 19 7 -9 21 10 -12 13 -14 23 20 -17 -18 -19 -20 -21 -22 -23 -24 -25 -26 -27
leaf_value=-122.55076061430432 200.95155334472656 56.248262770516533 18.888633860712467 378.39837995256698 17.942312453343316 22.295848010835194 -26.821014138926632 11.187065505981446 -149.28785832722983 -79.428665527343753 48.562375313895096 -90.35107421875 291.35141235351563 -107.85066057840984 -46.868562507629399 122.94954808553059 -147.59533210523202 -132.9415958527596 -36.41853298611111 92.653069051106783 13.459088839017429 -84.764867187500002 -46.41172612508138 -57.214762341976169 -15.588706779479981 -81.313191133386965
leaf_weight=21 20 35 23 35 26 21 23 26 24 25 35 22 20 24 32 27 33 31 27 27 26 25 30 32 24 34
leaf_count=21 20 35 23 35 26 21 23 26 24 25 35 22 20 24 32 27 33 31 27 27 26 25 30 32 24 34
internal_value=1.78342 -33.3716 -45.8206 307.867 -22.3182 13.0458 -88.4607 -61.5107 -87.7627 -40.2099 -4.76723 -51.2284 246.151 -60.7148 -39.2198 85.2956 -112.042 -97.1906 -74.1014 61.8718 -19.8251 -116.368 -16.2498 -79.8215 1.84742 -92.2942
internal_weight=728 653 591 75 381 128 210 98 72 253 60 193 40 170 80 62 112 79 48 48 58 49 80 90 50 58
internal_count=728 653 591 75 381 128 210 98 72 253 60 193 40 170 80 62 112 79 48 48 58 49 80 90 50 58
is_linear=0
shrinkage=0.05


Tree=32
num_leaves=26
num_cat=0
split_feature=4 4 5 0 1 5 5 2 1 1 5 5 5 5 1 0 1 2 0 1 1 12 11 2 7
split_gain=2.82791e+09 3.48246e+08 2.50693e+08 1.17854e+08 6.33128e+07 6.00033e+07 9.33521e+07 1.29031e+08 4.40035e+07 4.3735e+07 5.30052e+07 4.6508e+07 9.03736e+07 6.35488e+07 6.72757e+07 3.9518e+07 2.95014e+07 2.93632e+07 2.44802e+07 2.36952e+07 2.25281e+07 3.12367e+07 2.71743e+07 1.04488e+07 5.44656e+06
threshold=1.8734810580504788 1.2264286197630379 0.14654946697744883 0.30283510294387855 1.193844267457064 0.288972764784933 0.92942689827998082 -0.48331718992005629 -0.55247912033544755 0.73646419354533721 -1.3751262863694758 -1.2486959578127921 -1.1400851464634669 -0.97528782225824495 -1.0983320035752631 -0.90221282828479776 0.60213162525360542 -0.48331718992005629 0.16106475809344603 0.42031594369863318 -0.55247912033544755 1.0000000180025095e-35 1.0000000180025095e-35 1.0000000180025095e-35 1.0000000180025095e-35
decision_type=2 2 2 2 2 2 2 2 2 2 2 2 2 2 2 2 2 2 2 2 2 2 2 2 2
left_child=1 2 9 16 5 -4 8 19 -7 10 -1 -12 -13 -14 -15 -16 -2 -10 -3 -8 -17 22 -22 -19 -6
right_child=3 18 4 -5 24 6 7 -9 17 -11 11 12 13 14 15 20 -18 23 -20 -21 21 -23 -24 -25 -26
leaf_value=-133.79569168090822 190.90397888183594 53.435850256511145 73.475220135280068 359.47846191406256 -78.639954338073736 31.333063125610352 21.77695357322693 113.53656620979309 -5.368281105041504 -122.59199475740132 12.41003141857329 -157.30389111836752 2.7955811720628008 -8.057983438592208 -134.97711181640625 -101.04349627372547 276.78384277343747 -93.718633211576034 116.80207138061525 -51.91259342829386 -9.669899935335728 -105.42525801225143 -80.881861586797811 -51.873232519967218 -44.214226560239439
leaf_weight=26 20 35 28 35 20 20 20 32 25 38 21 24 39 38 29 39 20 26 27 24 37 22 21 35 27
leaf_count=26 20 35 28 35 20 20 20 32 25 38 21 24 39 38 29 39 20 26 27 24 37 22 21 35 27
internal_value=1.69425 -31.703 -43.5296 292.473 -6.40569 5.33486 -5.14828 37.1422 -35.4697 -72.095 -65.6123 -59.0465 -65.0729 -55.235 -67.4027 -82.6398 233.844 -51.0053 81.0308 -18.4173 -69.8854 -54.6958 -35.4535 -69.709 -58.8635
internal_weight=728 653 591 75 257 210 182 76 106 334 296 270 249 225 186 148 40 86 62 44 119 80 58 61 47
internal_count=728 653 591 75 257 210 182 76 106 334 296 270 249 225 186 148 40 86 62 44 119 80 58 61 47
is_linear=0
shrinkage=0.05


Tree=33
num_leaves=29
num_cat=0
split_feature=4 4 5 5 10 17 2 5 18 2 17 5 5 5 6 5 5 5 12 11 5 5 5 6 5 5 5 5
split_gain=2.55219e+09 3.14292e+08 2.2625e+08 8.3815e+07 5.99542e+07 5.48015e+07 4.97911e+07 3.87486e+07 5.4326e+07 5.15058e+07 2.37591e+07 4.61935e+07 5.85698e+07 4.25102e+07 2.38048e+07 2.08867e+07 3.75042e+07 2.83154e+07 2.58767e+07 2.54581e+07 2.02851e+07 1.85215e+07 1.29331e+07 3.13551e+07 6.32469e+06 1.95998e+06 1.26399e+06 1.19207e+06
threshold=1.8734810580504788 1.2264286197630379 0.14654946697744883 -0.36797723168401958 1.0000000180025095e-35 1.0000000180025095e-35 -0.48331718992005629 -1.3751262863694758 1.0000000180025095e-35 -0.48331718992005629 1.0000000180025095e-35 1.6004721518370759 1.2468382346061608 0.79577577494438334 1.0000000180025095e-35 -0.97528782225824495 -0.8618425891745487 -1.0852792192059033 1.0000000180025095e-35 1.0000000180025095e-35 -1.2209846159575781 -0.24750571931808193 -0.65480693650896549 1.0000000180025095e-35 -0.60982641397356385 -0.28824011088953633 1.0265992495688845 0.48483089281246028
decision_type=2 2 2 2 2 2 2 2 2 2 2 2 2 2 2 2 2 2 2 2 2 2 2 2 2 2 2 2
left_child=1 2 7 -2 10 -6 -5 -1 15 -10 14 12 13 -12 -4 17 -17 20 19 22 -9 -3 -18 -24 -11 -20 -7 -16
right_child=3 21 4 6 5 26 -8 8 9 24 11 -13 -14 -15 27 16 18 -19 25 -21 -22 -23 23 -25 -26 -27 -28 -29
leaf_value=-127.10590808574972 193.0903982979911 52.976598156520303 -11.892835998535157 370.99775274367562 99.605059814453128 -5.4124042013417117 272.511406176018 -36.862330474853515 -83.613204956054688 24.621773370107018 38.165676087599536 -55.791867780685429 89.361118011474616 -47.321128174752907 -57.280071258544922 -144.94562405672943 -13.144243057914403 -4.5790693803267049 -117.82613658075748 -94.297945227989786 -105.04344863891602 108.09386041429308 -14.023567708333335 -96.898588378906254 -12.951626768566314 -96.424306488037118 11.77447156906128 -73.97084674005923
leaf_weight=26 21 35 38 21 22 23 33 20 24 24 26 32 20 33 20 22 23 22 23 39 24 27 21 25 21 20 20 23
leaf_count=26 21 35 38 21 22 23 33 20 24 24 26 32 20 33 20 22 23 22 23 39 24 27 21 25 21 20 20 23
internal_value=1.60954 -30.1179 -41.3531 277.85 -6.08541 35.4202 310.812 -68.4903 -63.5422 -24.4606 -20.1368 -5.11178 15.4169 -9.64898 -40.7267 -74.8252 -83.9548 -50.8944 -75.0688 -62.0083 -74.052 76.9793 -43.7576 -59.0643 7.08752 -107.872 2.58149 -66.2077
internal_weight=728 653 591 75 257 65 54 334 308 69 192 111 79 59 81 239 173 66 151 108 44 62 69 46 45 43 43 43
internal_count=728 653 591 75 257 65 54 334 308 69 192 111 79 59 81 239 173 66 151 108 44 62 69 46 45 43 43 43
is_linear=0
shrinkage=0.05


Tree=34
num_leaves=26
num_cat=0
split_feature=4 4 5 0 1 5 5 2 1 5 5 5 5 1 1 0 2 1 1 0 1 5 5 2 1
split_gain=2.30335e+09 2.83649e+08 2.04191e+08 1.00292e+08 5.463e+07 5.25155e+07 8.26141e+07 1.1526e+08 3.86949e+07 4.35205e+07 4.03355e+07 8.13035e+07 5.45081e+07 5.64821e+07 3.79542e+07 3.4233e+07 2.62726e+07 2.53499e+07 2.14686e+07 2.03709e+07 2.02493e+07 2.10448e+07 3.83182e+07 9.40506e+06 5.06703e+06
threshold=1.8734810580504788 1.2264286197630379 0.14654946697744883 0.30283510294387855 1.193844267457064 0.288972764784933 0.92942689827998082 -0.48331718992005629 0.73646419354533721 -1.3751262863694758 -1.2486959578127921 -1.1400851464634669 -0.97528782225824495 -1.0983320035752631 -0.55247912033544755 -0.90221282828479776 -0.48331718992005629 0.60213162525360542 0.42031594369863318 0.16106475809344603 -0.55247912033544755 -0.54738219526130194 -0.22859501761719495 1.0000000180025095e-35 1.6463542784699969
decision_type=2 2 2 2 2 2 2 2 2 2 2 2 2 2 2 2 2 2 2 2 2 2 2 2 2
left_child=1 2 8 17 5 -4 14 18 9 -1 -11 -12 -13 -14 -7 -15 -16 -2 -8 -3 -17 -22 -23 -18 -6
right_child=3 19 4 -5 24 6 7 -9 -10 10 11 12 13 15 16 20 23 -19 -20 -21 21 22 -24 -25 -26
leaf_value=-120.75061328594502 170.06817687988283 47.957750652176998 68.871855981009347 325.76854317801343 -39.754895107562731 28.834460487365721 20.84947240829468 107.30402688980104 -112.56400612278988 13.527410016741072 -146.11122500101726 4.4448019565680097 -6.1925435718737152 -123.24208900188579 -4.4665911903381348 -92.199361595740697 -88.106051048865694 249.67642486572268 -49.292369111378989 105.76141405458804 -3.8402340698242186 -108.75716599684495 -28.122464572682102 -48.405645686558316 -72.77658887590681
leaf_weight=26 20 35 28 35 26 20 20 32 38 21 24 39 38 29 25 39 26 20 24 27 20 26 34 35 21
leaf_count=26 20 35 28 35 26 20 20 32 38 21 24 39 38 29 25 39 26 20 24 27 20 26 34 35 21
internal_value=1.52906 -28.612 -39.2855 263.957 -5.78114 5.12468 -4.68258 35.1013 -65.0658 -58.968 -53.0186 -58.6309 -49.2996 -60.5686 -33.2069 -74.5301 -47.6351 209.872 -17.4097 73.1303 -62.6591 -48.2582 -63.0642 -65.3271 -54.5093
internal_weight=728 653 591 75 257 210 182 76 334 296 270 249 225 186 106 148 86 40 44 62 119 80 60 61 47
internal_count=728 653 591 75 257 210 182 76 334 296 270 249 225 186 106 148 86 40 44 62 119 80 60 61 47
is_linear=0
shrinkage=0.05


Tree=35
num_leaves=29
num_cat=0
split_feature=4 0 3 2 6 0 2 5 5 5 5 2 5 10 0 6 1 1 0 15 5 6 5 0 2 1 6 2
split_gain=1.98567e+09 3.07167e+08 2.41899e+08 1.2331e+08 9.86252e+07 8.94429e+07 7.73439e+07 7.29728e+07 7.45943e+07 1.19664e+08 7.10046e+07 3.44488e+07 3.25374e+07 5.13194e+07 2.92878e+07 3.38028e+07 2.66448e+07 2.00867e+07 1.58498e+07 1.55076e+07 1.29794e+07 3.12599e+07 2.02356e+07 9.8447e+06 5.34955e+06 3.44896e+06 3.42485e+06 1.71008e+06
threshold=1.8944366212825192 1.0825719996212577 1.0000000180025095e-35 -0.48331718992005629 1.0000000180025095e-35 -1.4692942076865279 1.0000000180025095e-35 -0.81646829136539556 0.14654946697744883 0.35694407017093649 1.0480054427636671 1.0000000180025095e-35 -0.68482399864180876 1.0000000180025095e-35 -1.0439831731352303 1.0000000180025095e-35 0.75229189796641738 -0.55247912033544755 -0.61867213858393277 1.0000000180025095e-35 -0.24750571931808193 1.0000000180025095e-35 0.34282509168076097 1.4369978617473389 -0.48331718992005629 0.080223217932859525 1.0000000180025095e-35 1.1981770336157676
decision_type=2 2 2 2 2 2 2 2 2 2 2 2 2 2 2 2 2 2 2 2 2 2 2 2 2 2 2 2
left_child=1 2 5 17 -5 -1 12 -8 19 -10 16 18 14 20 15 -7 -2 -3 -4 27 26 22 -22 -19 -23 -15 -14 -9
right_child=10 3 11 4 -6 6 7 8 9 -11 -12 -13 13 25 -16 -17 -18 23 -20 -21 21 24 -24 -25 -26 -27 -28 -29
leaf_value=-141.02059775458443 171.52717488606771 37.394943745930988 43.356733200550082 21.642544097900391 173.459146582562 -45.614508928571432 49.254880142211917 -71.237149683634442 96.304103698730472 -55.496212294295027 314.95417073567711 85.401633967523992 -115.12783935546875 2.2686793518066408 -137.43104496002198 -117.94279947916667 242.44337052565356 2.8609395550143333 -16.36096734428406 -109.22046373807467 2.6814736938476567 -111.37667297363282 -68.444412841796876 -37.668160787122005 -79.280737634607263 -27.095235290527341 -86.217176964169468 -52.728677661602319
leaf_weight=36 27 24 20 20 23 35 24 24 20 37 21 23 20 20 32 30 26 31 25 26 20 20 20 29 37 20 21 26
leaf_count=36 27 24 20 20 23 35 24 24 20 37 21 23 20 20 32 30 26 31 25 26 20 20 20 29 37 20 21 26
internal_value=-8.51199 -35.9308 -52.4969 33.9858 102.847 -65.3006 -58.9906 -30.9906 -45.471 -2.23294 237.146 35.6228 -74.976 -62.2799 -98.2741 -78.9968 206.316 -1.26439 10.1802 -77.8996 -76.734 -66.7647 -32.8815 -16.7281 -90.5425 -12.4133 -100.32 -61.6127
internal_weight=737 663 536 127 43 468 432 157 133 57 74 68 275 178 97 65 53 84 45 76 138 97 40 60 57 40 41 50
internal_count=737 663 536 127 43 468 432 157 133 57 74 68 275 178 97 65 53 84 45 76 138 97 40 60 57 40 41 50
is_linear=0
shrinkage=0.05


Tree=36
num_leaves=30
num_cat=0
split_feature=4 0 3 2 6 0 2 0 6 0 0 2 1 10 6 1 1 11 6 0 0 16 1 1 0 2 2 1 1
split_gain=1.79207e+09 2.77218e+08 2.18314e+08 1.11287e+08 8.90092e+07 8.07222e+07 6.98028e+07 6.71059e+07 6.6765e+07 4.47609e+07 3.33804e+07 3.10901e+07 3.01189e+07 3.24377e+07 3.47506e+07 2.09731e+07 1.81282e+07 1.7832e+07 1.74283e+07 2.82721e+07 1.43044e+07 1.05634e+07 8.88592e+06 7.95359e+06 1.09175e+07 7.60947e+06 6.62824e+06 645582 377841
threshold=1.8944366212825192 1.0825719996212577 1.0000000180025095e-35 -0.48331718992005629 1.0000000180025095e-35 -1.4692942076865279 1.0000000180025095e-35 -0.83132765585958157 1.0000000180025095e-35 -0.051590759182202767 0.09017958566822977 1.0000000180025095e-35 -0.57642359625451733 1.0000000180025095e-35 1.0000000180025095e-35 0.30952201275107183 -0.55247912033544755 1.0000000180025095e-35 1.0000000180025095e-35 0.37372027536909486 -0.61867213858393277 1.0000000180025095e-35 0.94750025249307279 -0.25986950783291402 -0.40601662130828403 1.1981770336157676 1.1981770336157676 0.13379390981959241 0.53110987464619452
decision_type=2 2 2 2 2 2 2 2 2 2 2 2 2 2 2 2 2 2 2 2 2 2 2 2 2 2 2 2 2
left_child=1 2 5 16 -5 -1 12 -8 10 25 -2 20 17 14 15 -14 -3 21 19 -11 -4 -7 27 -16 -25 -9 -20 -18 -26
right_child=8 3 11 4 -6 6 7 9 -10 18 -12 -13 13 -15 23 -17 22 -19 26 -21 -22 -23 -24 24 28 -27 -28 -29 -30
leaf_value=-133.96956583658854 148.64540795898438 35.525197855631511 41.188897361755373 20.560415802001955 164.78618999978772 -131.30687237363873 49.461053334111753 -98.058558033130794 284.44969924400596 45.403073234558107 235.30912475585939 81.131552219390869 -75.332621519027214 -19.910279728816107 -64.289931182861324 -20.234475629757611 -35.849799423217775 -63.374854395939764 -61.907643925059929 -37.661531357538131 -15.542918275833131 -85.256004486083995 11.320292930603028 -124.78655079029225 -88.497215423583995 -59.364443397521974 -22.13655216217041 -23.145651092529299 -78.778148803710948
leaf_weight=36 25 24 20 20 23 33 23 27 29 20 20 23 31 39 20 39 20 26 22 21 25 20 20 27 20 24 20 20 20
leaf_count=36 25 24 20 20 23 33 23 27 29 20 20 23 31 39 20 39 20 26 22 21 25 20 20 27 20 24 20 20 20
internal_value=-8.08639 -34.1343 -49.8721 32.2866 97.7044 -62.0356 -56.0411 -29.4411 225.289 -42.984 187.163 33.8416 -71.2272 -60.7219 -70.8599 -44.6351 -1.20117 -97.2911 -20.3317 2.85779 9.67122 -113.929 -15.8917 -91.9603 -100.22 -79.8496 -42.969 -29.4977 -83.6377
internal_weight=737 663 536 127 43 468 432 157 74 134 45 68 275 196 157 70 84 79 83 41 45 53 60 87 67 51 42 40 40
internal_count=737 663 536 127 43 468 432 157 74 134 45 68 275 196 157 70 84 79 83 41 45 53 60 87 67 51 42 40 40
is_linear=0
shrinkage=0.05


Tree=37
num_leaves=29
num_cat=0
split_feature=4 17 3 1 2 5 1 5 1 1 1 5 5 5 2 5 2 10 5 5 5 5 5 6 5 5 3 1
split_gain=1.6185e+09 1.89362e+08 1.27211e+08 1.03449e+08 5.98083e+07 4.41825e+07 4.20689e+07 1.25488e+08 8.44053e+07 1.08472e+08 4.12647e+07 3.82908e+07 2.80999e+07 2.711e+07 3.0385e+07 4.85143e+07 2.53844e+07 1.44896e+07 2.06702e+07 1.39846e+07 2.54363e+07 1.31813e+07 2.65126e+07 1.23378e+07 6.83127e+06 1.61187e+07 5.07777e+06 957359
threshold=1.7426076348466026 1.0000000180025095e-35 1.0000000180025095e-35 0.57372292501064093 -0.48331718992005629 -0.10945190376511811 1.1479845084934215 1.5372925696617836 -0.55247912033544755 -0.94817173086245166 -1.2566090477860647 -0.84660396050840492 0.53743547396134039 0.14654946697744883 1.0000000180025095e-35 0.369393061957973 -0.48331718992005629 1.0000000180025095e-35 -0.52424433971809392 -1.057952164063628 -1.2071929928154612 1.1080727769922001 0.88384385213293515 1.0000000180025095e-35 -0.08110482833541377 -0.22264094570685508 1.4021124484807379 0.40448823927755295
decision_type=2 2 2 2 2 2 2 2 2 2 2 2 2 2 2 2 2 2 2 2 2 2 2 2 2 2 2 2
left_child=1 2 4 16 5 19 7 8 9 -3 -6 -12 -5 17 -15 -16 -2 18 -13 20 -1 22 -10 -21 25 -20 -4 -25
right_child=3 6 26 12 10 -7 -8 -9 21 -11 11 13 -14 14 15 -17 -18 -19 24 23 -22 -23 -24 27 -26 -27 -28 -29
leaf_value=-103.45692613389757 105.83208641639123 -12.077283379339404 5.9776017379760749 208.37020097815471 -111.00513472123581 -32.133354418205492 -48.27182201809353 117.02188652886285 -15.052606634660201 137.27741390228272 7.2950679469752959 -115.88749912806921 289.40608123779299 -61.612589703184192 59.596919555664073 -44.881386291503908 178.80741917003286 -29.99910454383263 -73.837470245361331 -131.42769214527027 -34.214308675130205 -8.4097418308258067 -91.828934379245936 -99.10363098144532 -79.561349317762591 -14.1323295211792 38.963868900707794 -83.633025207519538
leaf_weight=36 26 31 20 23 22 33 27 27 22 20 37 21 20 33 20 25 22 26 26 37 21 24 23 20 27 20 28 20
leaf_count=36 26 31 20 23 22 33 27 27 22 20 37 21 20 33 20 25 22 26 26 37 21 24 23 20 27 20 28 20
internal_value=-7.68207 -35.4918 -51.9281 189.737 -60.6618 -83.9575 9.09395 19.6305 -2.28253 46.4932 -45.5241 -39.394 246.061 -48.1187 -25.1707 1.55342 139.279 -63.0349 -72.1725 -96.7202 -77.9465 -38.3342 -54.2938 -110.618 -59.5969 -47.8787 25.2196 -91.3683
internal_weight=737 646 472 91 424 167 174 147 120 51 257 235 43 198 78 45 48 120 94 134 57 69 45 77 73 46 48 40
internal_count=737 646 472 91 424 167 174 147 120 51 257 235 43 198 78 45 48 120 94 134 57 69 45 77 73 46 48 40
is_linear=0
shrinkage=0.05


Tree=38
num_leaves=28
num_cat=0
split_feature=4 0 3 2 6 0 6 2 5 5 5 5 2 1 1 1 10 6 12 11 1 0 5 0 0 0 2
split_gain=1.46723e+09 2.2751e+08 1.75887e+08 1.00257e+08 7.9592e+07 7.16819e+07 5.98946e+07 5.75429e+07 6.19767e+07 6.07216e+07 1.00415e+08 2.89961e+07 2.81681e+07 2.60344e+07 3.12488e+07 2.73328e+07 3.25181e+07 3.71706e+07 2.11656e+07 1.61198e+07 1.50023e+07 1.30237e+07 1.04998e+07 1.02302e+07 9.83615e+06 9.65498e+06 7.52613e+06
